FANN_FLO_2.1
num_layers=4
learning_rate=0.700000
connection_rate=1.000000
network_type=0
learning_momentum=0.000000
training_algorithm=0
train_error_function=1
train_stop_function=0
cascade_output_change_fraction=0.010000
quickprop_decay=-0.000100
quickprop_mu=1.750000
rprop_increase_factor=1.200000
rprop_decrease_factor=0.500000
rprop_delta_min=0.000000
rprop_delta_max=50.000000
rprop_delta_zero=0.100000
cascade_output_stagnation_epochs=12
cascade_candidate_change_fraction=0.010000
cascade_candidate_stagnation_epochs=12
cascade_max_out_epochs=150
cascade_min_out_epochs=50
cascade_max_cand_epochs=150
cascade_min_cand_epochs=50
cascade_num_candidate_groups=2
bit_fail_limit=3.49999994039535522461e-01
cascade_candidate_limit=1.00000000000000000000e+03
cascade_weight_multiplier=4.00000005960464477539e-01
cascade_activation_functions_count=10
cascade_activation_functions=3 5 7 8 10 11 14 15 16 17 
cascade_activation_steepnesses_count=4
cascade_activation_steepnesses=2.50000000000000000000e-01 5.00000000000000000000e-01 7.50000000000000000000e-01 1.00000000000000000000e+00 
layer_sizes=401 101 51 13 
scale_included=0
neurons (num_inputs, activation_function, activation_steepness)=(0, 0, 0.00000000000000000000e+00) (0, 0, 0.00000000000000000000e+00) (0, 0, 0.00000000000000000000e+00) (0, 0, 0.00000000000000000000e+00) (0, 0, 0.00000000000000000000e+00) (0, 0, 0.00000000000000000000e+00) (0, 0, 0.00000000000000000000e+00) (0, 0, 0.00000000000000000000e+00) (0, 0, 0.00000000000000000000e+00) (0, 0, 0.00000000000000000000e+00) (0, 0, 0.00000000000000000000e+00) (0, 0, 0.00000000000000000000e+00) (0, 0, 0.00000000000000000000e+00) (0, 0, 0.00000000000000000000e+00) (0, 0, 0.00000000000000000000e+00) (0, 0, 0.00000000000000000000e+00) (0, 0, 0.00000000000000000000e+00) (0, 0, 0.00000000000000000000e+00) (0, 0, 0.00000000000000000000e+00) (0, 0, 0.00000000000000000000e+00) (0, 0, 0.00000000000000000000e+00) (0, 0, 0.00000000000000000000e+00) (0, 0, 0.00000000000000000000e+00) (0, 0, 0.00000000000000000000e+00) (0, 0, 0.00000000000000000000e+00) (0, 0, 0.00000000000000000000e+00) (0, 0, 0.00000000000000000000e+00) (0, 0, 0.00000000000000000000e+00) (0, 0, 0.00000000000000000000e+00) (0, 0, 0.00000000000000000000e+00) (0, 0, 0.00000000000000000000e+00) (0, 0, 0.00000000000000000000e+00) (0, 0, 0.00000000000000000000e+00) (0, 0, 0.00000000000000000000e+00) (0, 0, 0.00000000000000000000e+00) (0, 0, 0.00000000000000000000e+00) (0, 0, 0.00000000000000000000e+00) (0, 0, 0.00000000000000000000e+00) (0, 0, 0.00000000000000000000e+00) (0, 0, 0.00000000000000000000e+00) (0, 0, 0.00000000000000000000e+00) (0, 0, 0.00000000000000000000e+00) (0, 0, 0.00000000000000000000e+00) (0, 0, 0.00000000000000000000e+00) (0, 0, 0.00000000000000000000e+00) (0, 0, 0.00000000000000000000e+00) (0, 0, 0.00000000000000000000e+00) (0, 0, 0.00000000000000000000e+00) (0, 0, 0.00000000000000000000e+00) (0, 0, 0.00000000000000000000e+00) (0, 0, 0.00000000000000000000e+00) (0, 0, 0.00000000000000000000e+00) (0, 0, 0.00000000000000000000e+00) (0, 0, 0.00000000000000000000e+00) (0, 0, 0.00000000000000000000e+00) (0, 0, 0.00000000000000000000e+00) (0, 0, 0.00000000000000000000e+00) (0, 0, 0.00000000000000000000e+00) (0, 0, 0.00000000000000000000e+00) (0, 0, 0.00000000000000000000e+00) (0, 0, 0.00000000000000000000e+00) (0, 0, 0.00000000000000000000e+00) (0, 0, 0.00000000000000000000e+00) (0, 0, 0.00000000000000000000e+00) (0, 0, 0.00000000000000000000e+00) (0, 0, 0.00000000000000000000e+00) (0, 0, 0.00000000000000000000e+00) (0, 0, 0.00000000000000000000e+00) (0, 0, 0.00000000000000000000e+00) (0, 0, 0.00000000000000000000e+00) (0, 0, 0.00000000000000000000e+00) (0, 0, 0.00000000000000000000e+00) (0, 0, 0.00000000000000000000e+00) (0, 0, 0.00000000000000000000e+00) (0, 0, 0.00000000000000000000e+00) (0, 0, 0.00000000000000000000e+00) (0, 0, 0.00000000000000000000e+00) (0, 0, 0.00000000000000000000e+00) (0, 0, 0.00000000000000000000e+00) (0, 0, 0.00000000000000000000e+00) (0, 0, 0.00000000000000000000e+00) (0, 0, 0.00000000000000000000e+00) (0, 0, 0.00000000000000000000e+00) (0, 0, 0.00000000000000000000e+00) (0, 0, 0.00000000000000000000e+00) (0, 0, 0.00000000000000000000e+00) (0, 0, 0.00000000000000000000e+00) (0, 0, 0.00000000000000000000e+00) (0, 0, 0.00000000000000000000e+00) (0, 0, 0.00000000000000000000e+00) (0, 0, 0.00000000000000000000e+00) (0, 0, 0.00000000000000000000e+00) (0, 0, 0.00000000000000000000e+00) (0, 0, 0.00000000000000000000e+00) (0, 0, 0.00000000000000000000e+00) (0, 0, 0.00000000000000000000e+00) (0, 0, 0.00000000000000000000e+00) (0, 0, 0.00000000000000000000e+00) (0, 0, 0.00000000000000000000e+00) (0, 0, 0.00000000000000000000e+00) (0, 0, 0.00000000000000000000e+00) (0, 0, 0.00000000000000000000e+00) (0, 0, 0.00000000000000000000e+00) (0, 0, 0.00000000000000000000e+00) (0, 0, 0.00000000000000000000e+00) (0, 0, 0.00000000000000000000e+00) (0, 0, 0.00000000000000000000e+00) (0, 0, 0.00000000000000000000e+00) (0, 0, 0.00000000000000000000e+00) (0, 0, 0.00000000000000000000e+00) (0, 0, 0.00000000000000000000e+00) (0, 0, 0.00000000000000000000e+00) (0, 0, 0.00000000000000000000e+00) (0, 0, 0.00000000000000000000e+00) (0, 0, 0.00000000000000000000e+00) (0, 0, 0.00000000000000000000e+00) (0, 0, 0.00000000000000000000e+00) (0, 0, 0.00000000000000000000e+00) (0, 0, 0.00000000000000000000e+00) (0, 0, 0.00000000000000000000e+00) (0, 0, 0.00000000000000000000e+00) (0, 0, 0.00000000000000000000e+00) (0, 0, 0.00000000000000000000e+00) (0, 0, 0.00000000000000000000e+00) (0, 0, 0.00000000000000000000e+00) (0, 0, 0.00000000000000000000e+00) (0, 0, 0.00000000000000000000e+00) (0, 0, 0.00000000000000000000e+00) (0, 0, 0.00000000000000000000e+00) (0, 0, 0.00000000000000000000e+00) (0, 0, 0.00000000000000000000e+00) (0, 0, 0.00000000000000000000e+00) (0, 0, 0.00000000000000000000e+00) (0, 0, 0.00000000000000000000e+00) (0, 0, 0.00000000000000000000e+00) (0, 0, 0.00000000000000000000e+00) (0, 0, 0.00000000000000000000e+00) (0, 0, 0.00000000000000000000e+00) (0, 0, 0.00000000000000000000e+00) (0, 0, 0.00000000000000000000e+00) (0, 0, 0.00000000000000000000e+00) (0, 0, 0.00000000000000000000e+00) (0, 0, 0.00000000000000000000e+00) (0, 0, 0.00000000000000000000e+00) (0, 0, 0.00000000000000000000e+00) (0, 0, 0.00000000000000000000e+00) (0, 0, 0.00000000000000000000e+00) (0, 0, 0.00000000000000000000e+00) (0, 0, 0.00000000000000000000e+00) (0, 0, 0.00000000000000000000e+00) (0, 0, 0.00000000000000000000e+00) (0, 0, 0.00000000000000000000e+00) (0, 0, 0.00000000000000000000e+00) (0, 0, 0.00000000000000000000e+00) (0, 0, 0.00000000000000000000e+00) (0, 0, 0.00000000000000000000e+00) (0, 0, 0.00000000000000000000e+00) (0, 0, 0.00000000000000000000e+00) (0, 0, 0.00000000000000000000e+00) (0, 0, 0.00000000000000000000e+00) (0, 0, 0.00000000000000000000e+00) (0, 0, 0.00000000000000000000e+00) (0, 0, 0.00000000000000000000e+00) (0, 0, 0.00000000000000000000e+00) (0, 0, 0.00000000000000000000e+00) (0, 0, 0.00000000000000000000e+00) (0, 0, 0.00000000000000000000e+00) (0, 0, 0.00000000000000000000e+00) (0, 0, 0.00000000000000000000e+00) (0, 0, 0.00000000000000000000e+00) (0, 0, 0.00000000000000000000e+00) (0, 0, 0.00000000000000000000e+00) (0, 0, 0.00000000000000000000e+00) (0, 0, 0.00000000000000000000e+00) (0, 0, 0.00000000000000000000e+00) (0, 0, 0.00000000000000000000e+00) (0, 0, 0.00000000000000000000e+00) (0, 0, 0.00000000000000000000e+00) (0, 0, 0.00000000000000000000e+00) (0, 0, 0.00000000000000000000e+00) (0, 0, 0.00000000000000000000e+00) (0, 0, 0.00000000000000000000e+00) (0, 0, 0.00000000000000000000e+00) (0, 0, 0.00000000000000000000e+00) (0, 0, 0.00000000000000000000e+00) (0, 0, 0.00000000000000000000e+00) (0, 0, 0.00000000000000000000e+00) (0, 0, 0.00000000000000000000e+00) (0, 0, 0.00000000000000000000e+00) (0, 0, 0.00000000000000000000e+00) (0, 0, 0.00000000000000000000e+00) (0, 0, 0.00000000000000000000e+00) (0, 0, 0.00000000000000000000e+00) (0, 0, 0.00000000000000000000e+00) (0, 0, 0.00000000000000000000e+00) (0, 0, 0.00000000000000000000e+00) (0, 0, 0.00000000000000000000e+00) (0, 0, 0.00000000000000000000e+00) (0, 0, 0.00000000000000000000e+00) (0, 0, 0.00000000000000000000e+00) (0, 0, 0.00000000000000000000e+00) (0, 0, 0.00000000000000000000e+00) (0, 0, 0.00000000000000000000e+00) (0, 0, 0.00000000000000000000e+00) (0, 0, 0.00000000000000000000e+00) (0, 0, 0.00000000000000000000e+00) (0, 0, 0.00000000000000000000e+00) (0, 0, 0.00000000000000000000e+00) (0, 0, 0.00000000000000000000e+00) (0, 0, 0.00000000000000000000e+00) (0, 0, 0.00000000000000000000e+00) (0, 0, 0.00000000000000000000e+00) (0, 0, 0.00000000000000000000e+00) (0, 0, 0.00000000000000000000e+00) (0, 0, 0.00000000000000000000e+00) (0, 0, 0.00000000000000000000e+00) (0, 0, 0.00000000000000000000e+00) (0, 0, 0.00000000000000000000e+00) (0, 0, 0.00000000000000000000e+00) (0, 0, 0.00000000000000000000e+00) (0, 0, 0.00000000000000000000e+00) (0, 0, 0.00000000000000000000e+00) (0, 0, 0.00000000000000000000e+00) (0, 0, 0.00000000000000000000e+00) (0, 0, 0.00000000000000000000e+00) (0, 0, 0.00000000000000000000e+00) (0, 0, 0.00000000000000000000e+00) (0, 0, 0.00000000000000000000e+00) (0, 0, 0.00000000000000000000e+00) (0, 0, 0.00000000000000000000e+00) (0, 0, 0.00000000000000000000e+00) (0, 0, 0.00000000000000000000e+00) (0, 0, 0.00000000000000000000e+00) (0, 0, 0.00000000000000000000e+00) (0, 0, 0.00000000000000000000e+00) (0, 0, 0.00000000000000000000e+00) (0, 0, 0.00000000000000000000e+00) (0, 0, 0.00000000000000000000e+00) (0, 0, 0.00000000000000000000e+00) (0, 0, 0.00000000000000000000e+00) (0, 0, 0.00000000000000000000e+00) (0, 0, 0.00000000000000000000e+00) (0, 0, 0.00000000000000000000e+00) (0, 0, 0.00000000000000000000e+00) (0, 0, 0.00000000000000000000e+00) (0, 0, 0.00000000000000000000e+00) (0, 0, 0.00000000000000000000e+00) (0, 0, 0.00000000000000000000e+00) (0, 0, 0.00000000000000000000e+00) (0, 0, 0.00000000000000000000e+00) (0, 0, 0.00000000000000000000e+00) (0, 0, 0.00000000000000000000e+00) (0, 0, 0.00000000000000000000e+00) (0, 0, 0.00000000000000000000e+00) (0, 0, 0.00000000000000000000e+00) (0, 0, 0.00000000000000000000e+00) (0, 0, 0.00000000000000000000e+00) (0, 0, 0.00000000000000000000e+00) (0, 0, 0.00000000000000000000e+00) (0, 0, 0.00000000000000000000e+00) (0, 0, 0.00000000000000000000e+00) (0, 0, 0.00000000000000000000e+00) (0, 0, 0.00000000000000000000e+00) (0, 0, 0.00000000000000000000e+00) (0, 0, 0.00000000000000000000e+00) (0, 0, 0.00000000000000000000e+00) (0, 0, 0.00000000000000000000e+00) (0, 0, 0.00000000000000000000e+00) (0, 0, 0.00000000000000000000e+00) (0, 0, 0.00000000000000000000e+00) (0, 0, 0.00000000000000000000e+00) (0, 0, 0.00000000000000000000e+00) (0, 0, 0.00000000000000000000e+00) (0, 0, 0.00000000000000000000e+00) (0, 0, 0.00000000000000000000e+00) (0, 0, 0.00000000000000000000e+00) (0, 0, 0.00000000000000000000e+00) (0, 0, 0.00000000000000000000e+00) (0, 0, 0.00000000000000000000e+00) (0, 0, 0.00000000000000000000e+00) (0, 0, 0.00000000000000000000e+00) (0, 0, 0.00000000000000000000e+00) (0, 0, 0.00000000000000000000e+00) (0, 0, 0.00000000000000000000e+00) (0, 0, 0.00000000000000000000e+00) (0, 0, 0.00000000000000000000e+00) (0, 0, 0.00000000000000000000e+00) (0, 0, 0.00000000000000000000e+00) (0, 0, 0.00000000000000000000e+00) (0, 0, 0.00000000000000000000e+00) (0, 0, 0.00000000000000000000e+00) (0, 0, 0.00000000000000000000e+00) (0, 0, 0.00000000000000000000e+00) (0, 0, 0.00000000000000000000e+00) (0, 0, 0.00000000000000000000e+00) (0, 0, 0.00000000000000000000e+00) (0, 0, 0.00000000000000000000e+00) (0, 0, 0.00000000000000000000e+00) (0, 0, 0.00000000000000000000e+00) (0, 0, 0.00000000000000000000e+00) (0, 0, 0.00000000000000000000e+00) (0, 0, 0.00000000000000000000e+00) (0, 0, 0.00000000000000000000e+00) (0, 0, 0.00000000000000000000e+00) (0, 0, 0.00000000000000000000e+00) (0, 0, 0.00000000000000000000e+00) (0, 0, 0.00000000000000000000e+00) (0, 0, 0.00000000000000000000e+00) (0, 0, 0.00000000000000000000e+00) (0, 0, 0.00000000000000000000e+00) (0, 0, 0.00000000000000000000e+00) (0, 0, 0.00000000000000000000e+00) (0, 0, 0.00000000000000000000e+00) (0, 0, 0.00000000000000000000e+00) (0, 0, 0.00000000000000000000e+00) (0, 0, 0.00000000000000000000e+00) (0, 0, 0.00000000000000000000e+00) (0, 0, 0.00000000000000000000e+00) (0, 0, 0.00000000000000000000e+00) (0, 0, 0.00000000000000000000e+00) (0, 0, 0.00000000000000000000e+00) (0, 0, 0.00000000000000000000e+00) (0, 0, 0.00000000000000000000e+00) (0, 0, 0.00000000000000000000e+00) (0, 0, 0.00000000000000000000e+00) (0, 0, 0.00000000000000000000e+00) (0, 0, 0.00000000000000000000e+00) (0, 0, 0.00000000000000000000e+00) (0, 0, 0.00000000000000000000e+00) (0, 0, 0.00000000000000000000e+00) (0, 0, 0.00000000000000000000e+00) (0, 0, 0.00000000000000000000e+00) (0, 0, 0.00000000000000000000e+00) (0, 0, 0.00000000000000000000e+00) (0, 0, 0.00000000000000000000e+00) (0, 0, 0.00000000000000000000e+00) (0, 0, 0.00000000000000000000e+00) (0, 0, 0.00000000000000000000e+00) (0, 0, 0.00000000000000000000e+00) (0, 0, 0.00000000000000000000e+00) (0, 0, 0.00000000000000000000e+00) (0, 0, 0.00000000000000000000e+00) (0, 0, 0.00000000000000000000e+00) (0, 0, 0.00000000000000000000e+00) (0, 0, 0.00000000000000000000e+00) (0, 0, 0.00000000000000000000e+00) (0, 0, 0.00000000000000000000e+00) (0, 0, 0.00000000000000000000e+00) (0, 0, 0.00000000000000000000e+00) (0, 0, 0.00000000000000000000e+00) (0, 0, 0.00000000000000000000e+00) (0, 0, 0.00000000000000000000e+00) (0, 0, 0.00000000000000000000e+00) (0, 0, 0.00000000000000000000e+00) (0, 0, 0.00000000000000000000e+00) (0, 0, 0.00000000000000000000e+00) (0, 0, 0.00000000000000000000e+00) (0, 0, 0.00000000000000000000e+00) (0, 0, 0.00000000000000000000e+00) (0, 0, 0.00000000000000000000e+00) (0, 0, 0.00000000000000000000e+00) (0, 0, 0.00000000000000000000e+00) (0, 0, 0.00000000000000000000e+00) (0, 0, 0.00000000000000000000e+00) (0, 0, 0.00000000000000000000e+00) (0, 0, 0.00000000000000000000e+00) (0, 0, 0.00000000000000000000e+00) (0, 0, 0.00000000000000000000e+00) (0, 0, 0.00000000000000000000e+00) (0, 0, 0.00000000000000000000e+00) (0, 0, 0.00000000000000000000e+00) (0, 0, 0.00000000000000000000e+00) (0, 0, 0.00000000000000000000e+00) (0, 0, 0.00000000000000000000e+00) (0, 0, 0.00000000000000000000e+00) (0, 0, 0.00000000000000000000e+00) (0, 0, 0.00000000000000000000e+00) (0, 0, 0.00000000000000000000e+00) (0, 0, 0.00000000000000000000e+00) (0, 0, 0.00000000000000000000e+00) (0, 0, 0.00000000000000000000e+00) (0, 0, 0.00000000000000000000e+00) (0, 0, 0.00000000000000000000e+00) (0, 0, 0.00000000000000000000e+00) (0, 0, 0.00000000000000000000e+00) (0, 0, 0.00000000000000000000e+00) (0, 0, 0.00000000000000000000e+00) (0, 0, 0.00000000000000000000e+00) (0, 0, 0.00000000000000000000e+00) (0, 0, 0.00000000000000000000e+00) (0, 0, 0.00000000000000000000e+00) (0, 0, 0.00000000000000000000e+00) (0, 0, 0.00000000000000000000e+00) (0, 0, 0.00000000000000000000e+00) (0, 0, 0.00000000000000000000e+00) (0, 0, 0.00000000000000000000e+00) (0, 0, 0.00000000000000000000e+00) (0, 0, 0.00000000000000000000e+00) (0, 0, 0.00000000000000000000e+00) (0, 0, 0.00000000000000000000e+00) (0, 0, 0.00000000000000000000e+00) (401, 3, 5.00000000000000000000e-01) (401, 3, 5.00000000000000000000e-01) (401, 3, 5.00000000000000000000e-01) (401, 3, 5.00000000000000000000e-01) (401, 3, 5.00000000000000000000e-01) (401, 3, 5.00000000000000000000e-01) (401, 3, 5.00000000000000000000e-01) (401, 3, 5.00000000000000000000e-01) (401, 3, 5.00000000000000000000e-01) (401, 3, 5.00000000000000000000e-01) (401, 3, 5.00000000000000000000e-01) (401, 3, 5.00000000000000000000e-01) (401, 3, 5.00000000000000000000e-01) (401, 3, 5.00000000000000000000e-01) (401, 3, 5.00000000000000000000e-01) (401, 3, 5.00000000000000000000e-01) (401, 3, 5.00000000000000000000e-01) (401, 3, 5.00000000000000000000e-01) (401, 3, 5.00000000000000000000e-01) (401, 3, 5.00000000000000000000e-01) (401, 3, 5.00000000000000000000e-01) (401, 3, 5.00000000000000000000e-01) (401, 3, 5.00000000000000000000e-01) (401, 3, 5.00000000000000000000e-01) (401, 3, 5.00000000000000000000e-01) (401, 3, 5.00000000000000000000e-01) (401, 3, 5.00000000000000000000e-01) (401, 3, 5.00000000000000000000e-01) (401, 3, 5.00000000000000000000e-01) (401, 3, 5.00000000000000000000e-01) (401, 3, 5.00000000000000000000e-01) (401, 3, 5.00000000000000000000e-01) (401, 3, 5.00000000000000000000e-01) (401, 3, 5.00000000000000000000e-01) (401, 3, 5.00000000000000000000e-01) (401, 3, 5.00000000000000000000e-01) (401, 3, 5.00000000000000000000e-01) (401, 3, 5.00000000000000000000e-01) (401, 3, 5.00000000000000000000e-01) (401, 3, 5.00000000000000000000e-01) (401, 3, 5.00000000000000000000e-01) (401, 3, 5.00000000000000000000e-01) (401, 3, 5.00000000000000000000e-01) (401, 3, 5.00000000000000000000e-01) (401, 3, 5.00000000000000000000e-01) (401, 3, 5.00000000000000000000e-01) (401, 3, 5.00000000000000000000e-01) (401, 3, 5.00000000000000000000e-01) (401, 3, 5.00000000000000000000e-01) (401, 3, 5.00000000000000000000e-01) (401, 3, 5.00000000000000000000e-01) (401, 3, 5.00000000000000000000e-01) (401, 3, 5.00000000000000000000e-01) (401, 3, 5.00000000000000000000e-01) (401, 3, 5.00000000000000000000e-01) (401, 3, 5.00000000000000000000e-01) (401, 3, 5.00000000000000000000e-01) (401, 3, 5.00000000000000000000e-01) (401, 3, 5.00000000000000000000e-01) (401, 3, 5.00000000000000000000e-01) (401, 3, 5.00000000000000000000e-01) (401, 3, 5.00000000000000000000e-01) (401, 3, 5.00000000000000000000e-01) (401, 3, 5.00000000000000000000e-01) (401, 3, 5.00000000000000000000e-01) (401, 3, 5.00000000000000000000e-01) (401, 3, 5.00000000000000000000e-01) (401, 3, 5.00000000000000000000e-01) (401, 3, 5.00000000000000000000e-01) (401, 3, 5.00000000000000000000e-01) (401, 3, 5.00000000000000000000e-01) (401, 3, 5.00000000000000000000e-01) (401, 3, 5.00000000000000000000e-01) (401, 3, 5.00000000000000000000e-01) (401, 3, 5.00000000000000000000e-01) (401, 3, 5.00000000000000000000e-01) (401, 3, 5.00000000000000000000e-01) (401, 3, 5.00000000000000000000e-01) (401, 3, 5.00000000000000000000e-01) (401, 3, 5.00000000000000000000e-01) (401, 3, 5.00000000000000000000e-01) (401, 3, 5.00000000000000000000e-01) (401, 3, 5.00000000000000000000e-01) (401, 3, 5.00000000000000000000e-01) (401, 3, 5.00000000000000000000e-01) (401, 3, 5.00000000000000000000e-01) (401, 3, 5.00000000000000000000e-01) (401, 3, 5.00000000000000000000e-01) (401, 3, 5.00000000000000000000e-01) (401, 3, 5.00000000000000000000e-01) (401, 3, 5.00000000000000000000e-01) (401, 3, 5.00000000000000000000e-01) (401, 3, 5.00000000000000000000e-01) (401, 3, 5.00000000000000000000e-01) (401, 3, 5.00000000000000000000e-01) (401, 3, 5.00000000000000000000e-01) (401, 3, 5.00000000000000000000e-01) (401, 3, 5.00000000000000000000e-01) (401, 3, 5.00000000000000000000e-01) (401, 3, 5.00000000000000000000e-01) (0, 3, 0.00000000000000000000e+00) (101, 3, 5.00000000000000000000e-01) (101, 3, 5.00000000000000000000e-01) (101, 3, 5.00000000000000000000e-01) (101, 3, 5.00000000000000000000e-01) (101, 3, 5.00000000000000000000e-01) (101, 3, 5.00000000000000000000e-01) (101, 3, 5.00000000000000000000e-01) (101, 3, 5.00000000000000000000e-01) (101, 3, 5.00000000000000000000e-01) (101, 3, 5.00000000000000000000e-01) (101, 3, 5.00000000000000000000e-01) (101, 3, 5.00000000000000000000e-01) (101, 3, 5.00000000000000000000e-01) (101, 3, 5.00000000000000000000e-01) (101, 3, 5.00000000000000000000e-01) (101, 3, 5.00000000000000000000e-01) (101, 3, 5.00000000000000000000e-01) (101, 3, 5.00000000000000000000e-01) (101, 3, 5.00000000000000000000e-01) (101, 3, 5.00000000000000000000e-01) (101, 3, 5.00000000000000000000e-01) (101, 3, 5.00000000000000000000e-01) (101, 3, 5.00000000000000000000e-01) (101, 3, 5.00000000000000000000e-01) (101, 3, 5.00000000000000000000e-01) (101, 3, 5.00000000000000000000e-01) (101, 3, 5.00000000000000000000e-01) (101, 3, 5.00000000000000000000e-01) (101, 3, 5.00000000000000000000e-01) (101, 3, 5.00000000000000000000e-01) (101, 3, 5.00000000000000000000e-01) (101, 3, 5.00000000000000000000e-01) (101, 3, 5.00000000000000000000e-01) (101, 3, 5.00000000000000000000e-01) (101, 3, 5.00000000000000000000e-01) (101, 3, 5.00000000000000000000e-01) (101, 3, 5.00000000000000000000e-01) (101, 3, 5.00000000000000000000e-01) (101, 3, 5.00000000000000000000e-01) (101, 3, 5.00000000000000000000e-01) (101, 3, 5.00000000000000000000e-01) (101, 3, 5.00000000000000000000e-01) (101, 3, 5.00000000000000000000e-01) (101, 3, 5.00000000000000000000e-01) (101, 3, 5.00000000000000000000e-01) (101, 3, 5.00000000000000000000e-01) (101, 3, 5.00000000000000000000e-01) (101, 3, 5.00000000000000000000e-01) (101, 3, 5.00000000000000000000e-01) (101, 3, 5.00000000000000000000e-01) (0, 3, 0.00000000000000000000e+00) (51, 3, 5.00000000000000000000e-01) (51, 3, 5.00000000000000000000e-01) (51, 3, 5.00000000000000000000e-01) (51, 3, 5.00000000000000000000e-01) (51, 3, 5.00000000000000000000e-01) (51, 3, 5.00000000000000000000e-01) (51, 3, 5.00000000000000000000e-01) (51, 3, 5.00000000000000000000e-01) (51, 3, 5.00000000000000000000e-01) (51, 3, 5.00000000000000000000e-01) (51, 3, 5.00000000000000000000e-01) (51, 3, 5.00000000000000000000e-01) (0, 3, 0.00000000000000000000e+00) 
connections (connected_to_neuron, weight)=(0, -1.26869052648544311523e-01) (1, -6.26645535230636596680e-02) (2, -8.15909802913665771484e-02) (3, -9.67950671911239624023e-02) (4, -5.90843148529529571533e-02) (5, -1.79981246590614318848e-01) (6, -5.15707917511463165283e-02) (7, -2.79442910104990005493e-02) (8, -9.29682254791259765625e-02) (9, -1.44741237163543701172e-01) (10, -2.62929089367389678955e-02) (11, -9.16786938905715942383e-02) (12, -1.00283615291118621826e-01) (13, -1.08595229685306549072e-01) (14, -5.03872781991958618164e-02) (15, -1.32630750536918640137e-01) (16, 1.04545410722494125366e-02) (17, 1.31547311320900917053e-02) (18, 1.53938196599483489990e-02) (19, -1.27644881606101989746e-01) (20, -1.75372466444969177246e-01) (21, -6.82110488414764404297e-02) (22, -1.62338793277740478516e-01) (23, -1.00987225770950317383e-01) (24, -6.31785392761230468750e-02) (25, -9.59454849362373352051e-02) (26, -5.59959746897220611572e-02) (27, -8.38927254080772399902e-02) (28, -1.71934500336647033691e-01) (29, -9.70335304737091064453e-02) (30, -1.16011910140514373779e-02) (31, -8.24186056852340698242e-02) (32, -1.32551401853561401367e-01) (33, -6.71520903706550598145e-02) (34, 3.46572604030370712280e-03) (35, -1.59229740500450134277e-01) (36, -4.68364134430885314941e-02) (37, -4.43011261522769927979e-02) (38, -4.93056885898113250732e-03) (39, -1.44490689039230346680e-01) (40, -6.02778717875480651855e-02) (41, -5.52964396774768829346e-02) (42, -6.15065805613994598389e-02) (43, -1.77123248577117919922e-01) (44, -1.81997671723365783691e-01) (45, -1.24343976378440856934e-01) (46, -1.19961187243461608887e-01) (47, 2.27481429465115070343e-03) (48, -1.60817086696624755859e-01) (49, -1.55932113528251647949e-01) (50, -1.77339807152748107910e-01) (51, -1.23937346041202545166e-01) (52, -1.00588472560048103333e-02) (53, -1.00205376744270324707e-01) (54, -1.56937469728291034698e-03) (55, -5.48837780952453613281e-02) (56, -2.85500939935445785522e-03) (57, -6.19388148188591003418e-02) (58, -1.20723441243171691895e-01) (59, 3.54814343154430389404e-02) (60, -1.89932674169540405273e-01) (61, -1.81286558508872985840e-01) (62, -9.61729139089584350586e-02) (63, -1.18010893464088439941e-01) (64, -3.83172892034053802490e-02) (65, -1.11339345574378967285e-01) (66, -7.58485347032546997070e-02) (67, -9.02002081274986267090e-02) (68, -3.70595812797546386719e-01) (69, -3.30702185630798339844e-01) (70, -3.52992653846740722656e-01) (71, -1.99223130941390991211e-01) (72, -2.34227195382118225098e-01) (73, -7.16377869248390197754e-02) (74, 9.36032796744257211685e-04) (75, -1.63283273577690124512e-01) (76, -7.14039579033851623535e-02) (77, -1.14162869751453399658e-01) (78, -1.44727438688278198242e-01) (79, -1.13532328978180885315e-02) (80, -9.13393571972846984863e-02) (81, -1.47217363119125366211e-01) (82, -1.65943190455436706543e-01) (83, -1.04151867330074310303e-01) (84, -5.62987215816974639893e-02) (85, -2.22161471843719482422e-01) (86, -3.56888100504875183105e-02) (87, -2.96986460685729980469e-01) (88, -2.84840613603591918945e-02) (89, 1.27992695197463035583e-02) (90, -2.59371191263198852539e-01) (91, -2.82185345888137817383e-01) (92, -2.43175595998764038086e-01) (93, 2.28789359331130981445e-01) (94, -3.38119089603424072266e-01) (95, -1.47647321224212646484e-01) (96, -6.11360669136047363281e-02) (97, -6.63103684782981872559e-02) (98, -6.36489763855934143066e-02) (99, -5.76238818466663360596e-02) (100, -4.19320315122604370117e-02) (101, -1.80767536163330078125e-01) (102, -1.22870966792106628418e-01) (103, -1.94178279489278793335e-02) (104, -1.44537672400474548340e-01) (105, -2.23501339554786682129e-01) (106, -3.35283428430557250977e-01) (107, 3.88526409864425659180e-01) (108, -1.33868660777807235718e-02) (109, -3.75793874263763427734e-01) (110, -4.37482804059982299805e-01) (111, -6.51670336723327636719e-01) (112, -7.31507062911987304688e-01) (113, -2.36080527305603027344e-01) (114, -6.21337182819843292236e-02) (115, -1.54151707887649536133e-01) (116, -1.54455248266458511353e-02) (117, 3.70321460068225860596e-02) (118, -4.90345060825347900391e-02) (119, -8.41133594512939453125e-02) (120, -1.69887319207191467285e-01) (121, -1.76882579922676086426e-01) (122, -1.75835102796554565430e-01) (123, -5.37532046437263488770e-02) (124, -1.62914365530014038086e-01) (125, -3.79815161228179931641e-01) (126, 3.13553035259246826172e-01) (127, 5.79215764999389648438e-01) (128, -3.37862193584442138672e-01) (129, -7.01958179473876953125e-01) (130, -3.69918555021286010742e-01) (131, -7.04606711864471435547e-01) (132, -1.37887382507324218750e+00) (133, -8.53440999984741210938e-01) (134, -5.73760047554969787598e-02) (135, 2.02920138835906982422e-02) (136, -1.49826765060424804688e-01) (137, -4.75200675427913665771e-02) (138, -2.51470711082220077515e-02) (139, 7.69204040989279747009e-03) (140, -6.18094243109226226807e-02) (141, -1.33822664618492126465e-01) (142, -1.59688472747802734375e-01) (143, -1.71774685382843017578e-01) (144, 1.74926277250051498413e-02) (145, -2.34048530459403991699e-01) (146, 9.79856073856353759766e-01) (147, 1.12691974639892578125e+00) (148, -3.88813823461532592773e-01) (149, -1.33858772460371255875e-03) (150, -9.65438485145568847656e-02) (151, -8.32201480865478515625e-01) (152, -1.17238497734069824219e+00) (153, -1.64447367191314697266e+00) (154, -9.48995292186737060547e-01) (155, -5.03551177680492401123e-02) (156, -7.46413096785545349121e-02) (157, 1.10031701624393463135e-02) (158, -2.69298627972602844238e-02) (159, -1.02336622774600982666e-01) (160, -1.22771412134170532227e-01) (161, -2.12671309709548950195e-02) (162, 1.64762660861015319824e-02) (163, -1.72207176685333251953e-01) (164, -5.64159862697124481201e-02) (165, 1.83443665504455566406e-01) (166, 1.74832689762115478516e+00) (167, 1.74100065231323242188e+00) (168, 7.24056899547576904297e-01) (169, 1.30360531806945800781e+00) (170, 1.32166194915771484375e+00) (171, 3.04194480180740356445e-01) (172, -5.09502232074737548828e-01) (173, -1.30203115940093994141e+00) (174, -1.07718205451965332031e+00) (175, -1.45575806498527526855e-01) (176, -1.86141598969697952271e-02) (177, -1.36495500802993774414e-01) (178, -2.42519602179527282715e-02) (179, 1.22901583090424537659e-02) (180, -3.95867824554443359375e-02) (181, -3.38657684624195098877e-02) (182, -1.60478070378303527832e-01) (183, -5.97119592130184173584e-02) (184, -1.54514059424400329590e-01) (185, 2.39113822579383850098e-01) (186, 1.45412659645080566406e+00) (187, 1.69185626506805419922e+00) (188, 2.59924674034118652344e+00) (189, 2.01266860961914062500e+00) (190, 1.26110696792602539062e+00) (191, 7.97578930854797363281e-01) (192, 3.63733828067779541016e-01) (193, 2.45345886796712875366e-02) (194, -7.05075502395629882812e-01) (195, -1.58302545547485351562e-01) (196, -6.73957541584968566895e-02) (197, -4.55452539026737213135e-02) (198, -4.41054701805114746094e-02) (199, -2.08043996244668960571e-02) (200, -1.54398843646049499512e-01) (201, -1.48693576455116271973e-01) (202, -4.77675907313823699951e-02) (203, -1.27204760909080505371e-01) (204, -1.33152499794960021973e-01) (205, 7.25587546825408935547e-01) (206, 1.38994169235229492188e+00) (207, 2.00235557556152343750e+00) (208, 1.45654511451721191406e+00) (209, 3.66737574338912963867e-01) (210, -3.80788683891296386719e-01) (211, -1.69405066967010498047e+00) (212, -5.24410963058471679688e-01) (213, 6.48110389709472656250e-01) (214, 2.78335899114608764648e-01) (215, -5.74068166315555572510e-02) (216, -1.48078054189682006836e-01) (217, -1.31429657340049743652e-01) (218, -4.58188578486442565918e-02) (219, -1.12574510276317596436e-01) (220, -9.48175117373466491699e-02) (221, -6.49565756320953369141e-02) (222, -1.85867641121149063110e-02) (223, -1.95358581840991973877e-02) (224, -2.28344369679689407349e-02) (225, 6.93617403507232666016e-01) (226, 1.93684792518615722656e+00) (227, 1.61777794361114501953e+00) (228, 3.53787951171398162842e-02) (229, -8.08122813701629638672e-01) (230, -2.11284017562866210938e+00) (231, -2.38783383369445800781e+00) (232, -8.25166761875152587891e-01) (233, 1.63243496417999267578e+00) (234, 9.25484776496887207031e-01) (235, -9.22621041536331176758e-03) (236, -7.09857270121574401855e-02) (237, -1.91919624805450439453e-01) (238, -2.78509035706520080566e-03) (239, -5.41590303182601928711e-02) (240, -3.13540808856487274170e-02) (241, -7.60730132460594177246e-02) (242, -1.11957825720310211182e-01) (243, -4.92629595100879669189e-02) (244, -2.77688540518283843994e-02) (245, 8.37636530399322509766e-01) (246, 1.96495854854583740234e+00) (247, 1.84712707996368408203e+00) (248, -2.85596460103988647461e-01) (249, -1.32738316059112548828e+00) (250, -1.78046858310699462891e+00) (251, -1.48054850101470947266e+00) (252, -4.39641833305358886719e-01) (253, 1.27374076843261718750e+00) (254, 1.41369330883026123047e+00) (255, 1.96643263101577758789e-01) (256, -1.64258852601051330566e-02) (257, -6.93518817424774169922e-02) (258, -1.17593988776206970215e-01) (259, 4.44479621946811676025e-02) (260, -2.50609330832958221436e-02) (261, -1.44943729043006896973e-01) (262, -1.06018513441085815430e-01) (263, -6.50705248117446899414e-02) (264, -1.04989282786846160889e-01) (265, 4.72195118665695190430e-01) (266, 1.71436274051666259766e+00) (267, 1.55463147163391113281e+00) (268, -7.65971779823303222656e-01) (269, -1.24377155303955078125e+00) (270, -8.32956075668334960938e-01) (271, -7.81610667705535888672e-01) (272, -3.23541253805160522461e-01) (273, 1.45287919044494628906e+00) (274, 1.54323256015777587891e+00) (275, 2.12362751364707946777e-01) (276, 2.47360467910766601562e-02) (277, -4.86526601016521453857e-02) (278, -3.51720042526721954346e-02) (279, -1.37863814830780029297e-01) (280, -1.97566270828247070312e-01) (281, -3.06464564055204391479e-02) (282, -2.06771880388259887695e-01) (283, -1.75308987498283386230e-01) (284, -1.75190418958663940430e-01) (285, 1.59130692481994628906e-01) (286, 6.62528812885284423828e-01) (287, 6.28091812133789062500e-01) (288, -4.12260890007019042969e-01) (289, -9.11065399646759033203e-01) (290, -3.86641532182693481445e-01) (291, -7.73849070072174072266e-01) (292, 4.30452600121498107910e-02) (293, 1.44693577289581298828e+00) (294, 1.24241590499877929688e+00) (295, 1.46674200892448425293e-01) (296, -1.77737213671207427979e-02) (297, -1.19117043912410736084e-01) (298, -4.39146719872951507568e-03) (299, -1.53170257806777954102e-01) (300, -8.78989025950431823730e-02) (301, -1.57360494136810302734e-01) (302, -1.15609116852283477783e-01) (303, -7.82702118158340454102e-02) (304, -1.44690379500389099121e-01) (305, -1.78189828991889953613e-01) (306, -4.95146632194519042969e-01) (307, 9.35038030147552490234e-02) (308, 1.40540227293968200684e-01) (309, 8.39030295610427856445e-02) (310, -7.91505649685859680176e-02) (311, -2.78741836547851562500e-01) (312, 3.39527904987335205078e-01) (313, 7.02804565429687500000e-01) (314, -2.04422190785408020020e-01) (315, 3.53085547685623168945e-02) (316, -1.88291758298873901367e-01) (317, -1.17863811552524566650e-01) (318, -3.46970371901988983154e-02) (319, -1.14491946995258331299e-01) (320, -9.26399976015090942383e-02) (321, -9.64463055133819580078e-02) (322, -1.05056039988994598389e-01) (323, -1.74297630786895751953e-01) (324, -2.59713567793369293213e-02) (325, -3.09015631675720214844e-01) (326, -7.28348553180694580078e-01) (327, -5.58411121368408203125e-01) (328, -1.21936433017253875732e-01) (329, 2.96380221843719482422e-01) (330, 4.93812024593353271484e-01) (331, -1.31800323724746704102e-02) (332, -3.83863970637321472168e-02) (333, -3.58538269996643066406e-01) (334, -6.36321842670440673828e-01) (335, -1.29994571208953857422e-01) (336, -9.97978821396827697754e-02) (337, -1.47733405232429504395e-01) (338, -7.24225267767906188965e-02) (339, -6.54866397380828857422e-02) (340, -1.86510160565376281738e-01) (341, -5.08838146924972534180e-02) (342, -8.20970237255096435547e-02) (343, -1.98390986770391464233e-02) (344, -1.98003396391868591309e-01) (345, -8.04133191704750061035e-02) (346, -1.35872811079025268555e-01) (347, -2.92165219783782958984e-01) (348, -1.34464517235755920410e-01) (349, 8.88961851596832275391e-02) (350, 9.82538238167762756348e-02) (351, 1.17900162935256958008e-01) (352, -1.65265843272209167480e-01) (353, -1.29487201571464538574e-01) (354, -1.02751061320304870605e-01) (355, 1.31841534748673439026e-02) (356, -1.62959247827529907227e-01) (357, -1.59010407514870166779e-03) (358, -5.08182011544704437256e-02) (359, -1.44316283985972404480e-02) (360, -6.76639452576637268066e-02) (361, -1.29567414522171020508e-01) (362, -1.97834149003028869629e-01) (363, -1.72820836305618286133e-02) (364, -1.12393192946910858154e-01) (365, -1.90714020282030105591e-02) (366, -1.31528854370117187500e-01) (367, -1.82860810309648513794e-02) (368, -1.73306390643119812012e-01) (369, -2.92085134424269199371e-03) (370, -1.04971714317798614502e-01) (371, -1.54961436986923217773e-01) (372, -4.51724119484424591064e-02) (373, -1.98762640357017517090e-01) (374, -1.47519022226333618164e-01) (375, -6.17385935038328170776e-03) (376, -8.05505458265542984009e-03) (377, -7.08554778248071670532e-03) (378, 1.70644209720194339752e-03) (379, -1.57973557710647583008e-01) (380, -1.22507929801940917969e-01) (381, -1.81617006659507751465e-01) (382, -8.11426490545272827148e-02) (383, -1.07085987925529479980e-01) (384, 5.24545926600694656372e-03) (385, -1.07935436069965362549e-01) (386, -1.14600092172622680664e-01) (387, -1.79499208927154541016e-01) (388, -1.24351903796195983887e-01) (389, -1.77319169044494628906e-01) (390, -2.21607461571693420410e-02) (391, -1.48557126522064208984e-01) (392, -1.24206773936748504639e-01) (393, -9.96406842023134231567e-03) (394, -1.32733196020126342773e-01) (395, -2.67352499067783355713e-02) (396, -2.48483289033174514771e-02) (397, -5.44593036174774169922e-02) (398, -3.75712513923645019531e-02) (399, -1.15088075399398803711e-02) (400, -3.06641869246959686279e-03) (0, -5.67231923341751098633e-02) (1, 1.16144627332687377930e-01) (2, -2.36441195011138916016e-02) (3, -5.22539578378200531006e-02) (4, -7.68233835697174072266e-02) (5, -7.39018619060516357422e-02) (6, -1.09191626310348510742e-01) (7, 1.10653802752494812012e-01) (8, 1.00189924240112304688e-01) (9, -6.35641366243362426758e-02) (10, -6.36662775650620460510e-03) (11, -5.70378229022026062012e-02) (12, 5.34694492816925048828e-02) (13, 8.46626758575439453125e-02) (14, -8.43781232833862304688e-02) (15, -5.79852052032947540283e-02) (16, -5.16350194811820983887e-02) (17, -5.71888387203216552734e-02) (18, 4.46897894144058227539e-02) (19, -5.41560817509889602661e-03) (20, 1.09545387327671051025e-01) (21, 7.15990215539932250977e-02) (22, 7.78845250606536865234e-02) (23, 8.16528424620628356934e-02) (24, 1.02694481611251831055e-01) (25, 3.68933714926242828369e-02) (26, 4.71894331276416778564e-02) (27, 2.06235684454441070557e-02) (28, 1.25496294349431991577e-02) (29, 2.41280738264322280884e-02) (30, -5.38317449390888214111e-02) (31, 2.85217221826314926147e-02) (32, -2.80911289155483245850e-03) (33, -1.36204930022358894348e-02) (34, 6.22263066470623016357e-02) (35, 2.14662831276655197144e-02) (36, 1.26443030312657356262e-02) (37, 4.10276651382446289062e-02) (38, -1.65762025862932205200e-02) (39, -2.24343943409621715546e-03) (40, 3.87925021350383758545e-02) (41, 5.02723604440689086914e-02) (42, 1.50267062708735466003e-02) (43, -7.97695247456431388855e-04) (44, 1.65631435811519622803e-02) (45, 2.24179849028587341309e-02) (46, 6.70064762234687805176e-02) (47, 1.40891537070274353027e-01) (48, 5.02773486077785491943e-02) (49, -3.01993675529956817627e-02) (50, -3.27147841453552246094e-02) (51, 2.99048908054828643799e-02) (52, -9.98595356941223144531e-02) (53, -4.06088121235370635986e-02) (54, 2.95821633189916610718e-02) (55, 1.16718374192714691162e-01) (56, 8.41678753495216369629e-02) (57, -9.14222821593284606934e-02) (58, -4.30636992678046226501e-03) (59, -6.92949071526527404785e-02) (60, 2.05796305090188980103e-02) (61, 2.40141322137787938118e-04) (62, 2.20230612903833389282e-02) (63, 8.62094908952713012695e-02) (64, 1.12324692308902740479e-01) (65, 6.01598098874092102051e-02) (66, 5.02985954284667968750e-01) (67, 5.84126234054565429688e-01) (68, 4.96571779251098632812e-01) (69, 1.52856647968292236328e-01) (70, 3.14262993633747100830e-02) (71, 7.51753663644194602966e-03) (72, 2.89724171161651611328e-01) (73, 4.45453315973281860352e-01) (74, 3.73371332883834838867e-01) (75, -4.12911064922809600830e-02) (76, 5.99438138306140899658e-02) (77, 1.57470926642417907715e-02) (78, -8.60880985856056213379e-02) (79, -2.17454321682453155518e-02) (80, 7.14307054877281188965e-02) (81, -1.26447519287467002869e-02) (82, 8.24396237730979919434e-02) (83, 8.16804170608520507812e-02) (84, 2.90692504495382308960e-02) (85, 2.13095039129257202148e-01) (86, 2.02776622772216796875e+00) (87, 2.02450990676879882812e+00) (88, 9.54179704189300537109e-01) (89, 6.61991894245147705078e-01) (90, 6.20102763175964355469e-01) (91, 2.85719037055969238281e-01) (92, 4.00984227657318115234e-01) (93, 1.52307474613189697266e+00) (94, 1.11508524417877197266e+00) (95, 6.99856206774711608887e-02) (96, -2.30672545731067657471e-02) (97, -3.79761345684528350830e-02) (98, -8.69771838188171386719e-02) (99, -5.88607341051101684570e-02) (100, -6.30649551749229431152e-02) (101, 9.42931845784187316895e-02) (102, 8.42758342623710632324e-02) (103, 4.72887307405471801758e-02) (104, -1.00347183644771575928e-01) (105, 3.95718170329928398132e-03) (106, 7.70521700382232666016e-01) (107, 1.91934704780578613281e-01) (108, -5.16790807247161865234e-01) (109, 4.16903525590896606445e-01) (110, 1.30660653114318847656e-01) (111, -3.32636296749114990234e-01) (112, -1.26934075355529785156e+00) (113, -6.39606475830078125000e-01) (114, 6.31799083203077316284e-03) (115, -3.12391612678766250610e-02) (116, -1.86646878719329833984e-02) (117, -7.88127444684505462646e-03) (118, 5.94541877508163452148e-02) (119, 4.94147650897502899170e-02) (120, 6.78193941712379455566e-02) (121, -5.16313388943672180176e-02) (122, 3.18648964166641235352e-02) (123, 4.11360850557684898376e-03) (124, -4.86416295170783996582e-02) (125, -3.73106688261032104492e-01) (126, -2.63563245534896850586e-01) (127, -2.93324261903762817383e-01) (128, -5.26617825031280517578e-01) (129, -3.00493031740188598633e-01) (130, -6.38759255409240722656e-01) (131, -5.35731554031372070312e-01) (132, -9.52001452445983886719e-01) (133, -1.62651765346527099609e+00) (134, -1.22849118709564208984e+00) (135, -1.89503252506256103516e-01) (136, -2.77126161381602287292e-03) (137, -8.76652672886848449707e-02) (138, 5.80702573060989379883e-02) (139, 3.08616627007722854614e-02) (140, 5.64925819635391235352e-02) (141, 6.93482011556625366211e-02) (142, 3.19651328027248382568e-02) (143, 5.61308301985263824463e-02) (144, 5.80936521291732788086e-02) (145, -9.27103579044342041016e-01) (146, -1.03463399410247802734e+00) (147, -4.30785983800888061523e-01) (148, -1.66003137826919555664e-01) (149, -7.74841487407684326172e-01) (150, -4.47847366333007812500e-01) (151, 1.66974604129791259766e-01) (152, -2.49504465609788894653e-02) (153, -7.45906293392181396484e-01) (154, -1.02087879180908203125e+00) (155, -8.37051048874855041504e-02) (156, 1.26320019364356994629e-01) (157, -4.15627993643283843994e-02) (158, -2.20426768064498901367e-02) (159, 6.16065897047519683838e-02) (160, 2.22407700493931770325e-03) (161, -3.00125684589147567749e-02) (162, -6.61538867279887199402e-03) (163, -6.59737270325422286987e-03) (164, 8.07132571935653686523e-02) (165, -9.97488260269165039062e-01) (166, -1.26535034179687500000e+00) (167, -8.03182423114776611328e-01) (168, -4.52731668949127197266e-01) (169, -1.98529645800590515137e-01) (170, 6.14980995655059814453e-01) (171, 1.14575791358947753906e+00) (172, 4.22670930624008178711e-01) (173, -1.00751566886901855469e+00) (174, -1.02003991603851318359e+00) (175, -2.36829832196235656738e-01) (176, 6.47876933217048645020e-02) (177, 4.98300343751907348633e-02) (178, -3.21242399513721466064e-02) (179, 2.49422378838062286377e-02) (180, 8.92882272601127624512e-02) (181, -4.01430465281009674072e-02) (182, -5.69859854876995086670e-02) (183, -3.59676927328109741211e-02) (184, 6.71524405479431152344e-02) (185, -9.32685434818267822266e-01) (186, -7.95727908611297607422e-01) (187, -1.20341944694519042969e+00) (188, -7.04455912113189697266e-01) (189, 1.11082099378108978271e-01) (190, 1.00771391391754150391e+00) (191, 1.87238276004791259766e+00) (192, 5.52113354206085205078e-01) (193, -1.12483382225036621094e+00) (194, -1.18695962429046630859e+00) (195, -2.12657898664474487305e-01) (196, 5.22092655301094055176e-02) (197, 7.88922235369682312012e-02) (198, 4.66372407972812652588e-02) (199, 6.67398050427436828613e-02) (200, -5.82709349691867828369e-03) (201, 1.98656395077705383301e-02) (202, -2.68498994410037994385e-03) (203, -2.51816259697079658508e-03) (204, 1.06031499803066253662e-01) (205, -4.34020757675170898438e-01) (206, -1.02278649806976318359e+00) (207, -2.36382555961608886719e+00) (208, -2.27629923820495605469e+00) (209, -4.24845486879348754883e-01) (210, 5.29955506324768066406e-01) (211, 4.99882668256759643555e-01) (212, -5.14160096645355224609e-01) (213, -7.51780152320861816406e-01) (214, -1.25975680351257324219e+00) (215, -1.19857564568519592285e-01) (216, 5.67223802208900451660e-02) (217, -9.90072498098015785217e-04) (218, 4.51269187033176422119e-02) (219, -4.37952615320682525635e-02) (220, 5.32089509069919586182e-02) (221, -5.16215190291404724121e-02) (222, -3.45229953527450561523e-02) (223, -2.50629633665084838867e-02) (224, -7.26154297590255737305e-02) (225, -1.02083301544189453125e+00) (226, -2.53963422775268554688e+00) (227, -3.50855493545532226562e+00) (228, -1.95834195613861083984e+00) (229, -1.17033064365386962891e+00) (230, -1.16322681307792663574e-01) (231, -1.75263822078704833984e-01) (232, -6.98348581790924072266e-01) (233, -5.41458249092102050781e-01) (234, -8.46055686473846435547e-01) (235, -1.60858884453773498535e-01) (236, 6.65004923939704895020e-02) (237, 3.50642092525959014893e-02) (238, 5.23641221225261688232e-02) (239, -2.29147132486104965210e-02) (240, 2.16936618089675903320e-02) (241, -7.76312351226806640625e-02) (242, 3.46639752388000488281e-02) (243, 5.29785677790641784668e-02) (244, 6.50894781574606895447e-03) (245, -1.69418299198150634766e+00) (246, -3.20885825157165527344e+00) (247, -2.74842023849487304688e+00) (248, -1.15034556388854980469e+00) (249, -6.76629543304443359375e-01) (250, -8.09915810823440551758e-02) (251, -4.62168425321578979492e-01) (252, -7.00398504734039306641e-01) (253, -7.43925631046295166016e-01) (254, -1.14051151275634765625e+00) (255, -3.91543418169021606445e-01) (256, -2.94499322772026062012e-02) (257, -4.53802831470966339111e-02) (258, 2.49187685549259185791e-02) (259, 7.89404287934303283691e-02) (260, 4.62668165564537048340e-02) (261, -2.73190308362245559692e-02) (262, -3.86786134913563728333e-03) (263, -3.99801367893815040588e-03) (264, -4.97388541698455810547e-02) (265, -5.05255162715911865234e-01) (266, -7.36419081687927246094e-01) (267, -9.81995999813079833984e-01) (268, -6.00551664829254150391e-01) (269, 2.48368069529533386230e-01) (270, 2.14075610041618347168e-01) (271, -4.54963177442550659180e-01) (272, -8.45592856407165527344e-01) (273, -9.88017857074737548828e-01) (274, -1.10359215736389160156e+00) (275, -1.98384389281272888184e-01) (276, -2.69715059548616409302e-02) (277, 6.07367008924484252930e-02) (278, -7.60955736041069030762e-02) (279, 1.20813459157943725586e-01) (280, 8.84245485067367553711e-02) (281, 6.90538734197616577148e-02) (282, -5.60823492705821990967e-02) (283, -1.77840273827314376831e-02) (284, 6.75859376788139343262e-02) (285, 9.66505259275436401367e-02) (286, 1.93997696042060852051e-01) (287, -2.45092064142227172852e-01) (288, 3.75184118747711181641e-01) (289, 9.62645947933197021484e-01) (290, 6.78227424621582031250e-01) (291, -1.00746184587478637695e-01) (292, -7.66956865787506103516e-01) (293, -7.27313041687011718750e-01) (294, -4.98549431562423706055e-01) (295, -5.07108680903911590576e-02) (296, 7.31892958283424377441e-02) (297, -5.84029871970415115356e-03) (298, -1.36094046756625175476e-02) (299, -9.84534621238708496094e-02) (300, 2.07736808806657791138e-02) (301, -5.03817237913608551025e-02) (302, 5.13811595737934112549e-02) (303, 4.99163335189223289490e-03) (304, -2.97335460782051086426e-02) (305, 1.57354965806007385254e-01) (306, 5.57758174836635589600e-02) (307, 9.35731306672096252441e-02) (308, 6.96930825710296630859e-01) (309, 5.90922892093658447266e-01) (310, -4.74396757781505584717e-02) (311, -4.03399348258972167969e-01) (312, -9.49349164962768554688e-01) (313, -6.11296594142913818359e-01) (314, 2.13502913713455200195e-01) (315, 9.79301258921623229980e-02) (316, 6.04948550462722778320e-02) (317, 6.20852038264274597168e-02) (318, -7.29049891233444213867e-02) (319, 4.46180962026119232178e-02) (320, -3.48352268338203430176e-02) (321, -6.52602389454841613770e-02) (322, -3.01422998309135437012e-02) (323, -1.18133209645748138428e-01) (324, -5.96780292689800262451e-02) (325, -5.10129816830158233643e-02) (326, 2.34807226806879043579e-02) (327, 2.22732692956924438477e-01) (328, 6.06890141963958740234e-01) (329, 4.50536519289016723633e-01) (330, -1.20288304984569549561e-01) (331, -2.90180891752243041992e-01) (332, -6.18652224540710449219e-01) (333, -6.47177517414093017578e-01) (334, 9.74805578589439392090e-02) (335, -2.78589017689228057861e-02) (336, 1.03919558227062225342e-01) (337, 1.17450200021266937256e-01) (338, 9.09287855029106140137e-02) (339, 1.22965527698397636414e-02) (340, -2.53138924017548561096e-03) (341, 5.05845025181770324707e-02) (342, -7.05398395657539367676e-02) (343, 1.29177942872047424316e-02) (344, 8.85321013629436492920e-03) (345, 9.61147099733352661133e-02) (346, 3.20374779403209686279e-02) (347, -2.07408815622329711914e-02) (348, 1.28629878163337707520e-01) (349, 1.20037905871868133545e-01) (350, 7.81363844871520996094e-02) (351, 1.24506443738937377930e-01) (352, 2.91751194745302200317e-02) (353, -1.02703787386417388916e-01) (354, -8.72502103447914123535e-02) (355, -1.99395641684532165527e-02) (356, 6.27783534582704305649e-04) (357, -3.74915986321866512299e-03) (358, 2.06937007606029510498e-02) (359, -7.88093134760856628418e-02) (360, -4.50197122991085052490e-02) (361, 1.12694136798381805420e-01) (362, -9.97824128717184066772e-03) (363, -8.40732753276824951172e-02) (364, 1.09756611287593841553e-01) (365, -6.99935406446456909180e-02) (366, -2.94651500880718231201e-02) (367, 8.75813961029052734375e-02) (368, -4.69936616718769073486e-02) (369, -4.20179031789302825928e-02) (370, -1.51901450008153915405e-02) (371, -4.55081136897206306458e-03) (372, 8.62998887896537780762e-02) (373, -5.91654470190405845642e-03) (374, -8.47939699888229370117e-02) (375, -1.10217044129967689514e-02) (376, -1.35378958657383918762e-02) (377, 2.38246880471706390381e-02) (378, 4.07524183392524719238e-02) (379, -7.90138840675354003906e-02) (380, -2.00143251568078994751e-02) (381, 5.25161176919937133789e-02) (382, -5.72347156703472137451e-02) (383, -8.08998718857765197754e-02) (384, 5.19164055585861206055e-02) (385, -5.90168312191963195801e-02) (386, -9.17431991547346115112e-03) (387, -5.50258979201316833496e-02) (388, 7.21318135038018226624e-03) (389, 8.26428905129432678223e-02) (390, -4.77964021265506744385e-02) (391, 1.87150407582521438599e-02) (392, 5.82743585109710693359e-02) (393, 4.37248274683952331543e-02) (394, 2.61847861111164093018e-02) (395, 7.51114636659622192383e-02) (396, 7.35359191894531250000e-02) (397, 7.27379918098449707031e-02) (398, 1.04011055082082748413e-02) (399, 5.15675880014896392822e-02) (400, -1.56939670443534851074e-01) (0, 2.68294122070074081421e-02) (1, -1.24212615191936492920e-01) (2, -5.24047948420047760010e-03) (3, -1.09405599534511566162e-01) (4, -1.04390308260917663574e-01) (5, -1.33098095655441284180e-01) (6, -3.09916716068983078003e-02) (7, 1.49010363966226577759e-02) (8, -1.11787626519799232483e-02) (9, -2.30416655540466308594e-02) (10, -1.29549071192741394043e-01) (11, -1.00644804537296295166e-01) (12, -1.12583562731742858887e-02) (13, -1.19711101055145263672e-01) (14, 3.45057323575019836426e-02) (15, 6.27481658011674880981e-03) (16, -7.13281109929084777832e-02) (17, -1.49607807397842407227e-01) (18, -1.07169151306152343750e-01) (19, -9.85356941819190979004e-02) (20, -9.35261324048042297363e-02) (21, 2.58393934927880764008e-03) (22, -1.33711069822311401367e-01) (23, 2.50732395797967910767e-02) (24, -7.57614150643348693848e-02) (25, 1.19330175220966339111e-02) (26, -4.02733311057090759277e-02) (27, -1.10935561358928680420e-01) (28, -7.55639076232910156250e-02) (29, -6.40277490019798278809e-02) (30, -1.04483857750892639160e-01) (31, -9.34369936585426330566e-02) (32, -2.41181179881095886230e-02) (33, -1.49007514119148254395e-01) (34, -3.73564772307872772217e-02) (35, 1.99014823883771896362e-02) (36, -1.23186796903610229492e-01) (37, -1.06826543807983398438e-01) (38, 6.91265240311622619629e-03) (39, 2.80826482921838760376e-02) (40, -1.41093000769615173340e-01) (41, -1.56018108129501342773e-01) (42, -1.21365465223789215088e-01) (43, -1.97550724260509014130e-03) (44, -1.13069444894790649414e-01) (45, -1.17768302559852600098e-01) (46, -3.83976735174655914307e-02) (47, -1.27801885828375816345e-02) (48, -9.28990095853805541992e-02) (49, 3.98136004805564880371e-02) (50, -1.37274295091629028320e-01) (51, -2.84052286297082901001e-02) (52, 9.08598490059375762939e-03) (53, -1.22754551470279693604e-01) (54, -6.41894116997718811035e-02) (55, -1.17225900292396545410e-01) (56, -1.47260308265686035156e-01) (57, -1.21044076979160308838e-01) (58, -6.49222657084465026855e-02) (59, -6.77511096000671386719e-02) (60, -1.14863477647304534912e-02) (61, 1.17960860952734947205e-02) (62, 1.34258652105927467346e-02) (63, -9.28179845213890075684e-02) (64, 9.46359056979417800903e-03) (65, -5.22833578288555145264e-02) (66, -1.70127183198928833008e-01) (67, -2.23153918981552124023e-01) (68, 1.39246612787246704102e-01) (69, 7.25186839699745178223e-02) (70, 9.56180915236473083496e-02) (71, 1.76942273974418640137e-01) (72, -1.13037049770355224609e-01) (73, -1.97838991880416870117e-01) (74, -3.68276387453079223633e-02) (75, -7.68698304891586303711e-02) (76, -5.53158409893512725830e-02) (77, -8.79531726241111755371e-02) (78, -1.30364850163459777832e-01) (79, 6.73994142562150955200e-03) (80, -8.17108526825904846191e-02) (81, -9.02079716324806213379e-02) (82, -5.60816079378128051758e-02) (83, -1.28330916166305541992e-01) (84, -5.54088354110717773438e-02) (85, -1.34211540222167968750e-01) (86, -4.03258174657821655273e-01) (87, -7.37824216485023498535e-02) (88, 3.19351069629192352295e-02) (89, -3.15757542848587036133e-02) (90, 1.89324975013732910156e-01) (91, 2.01170891523361206055e-01) (92, 2.08475857973098754883e-01) (93, -6.18953168392181396484e-01) (94, -1.26216217875480651855e-01) (95, -2.72879507392644882202e-02) (96, -5.79415224492549896240e-02) (97, -2.62754969298839569092e-02) (98, 3.53796267881989479065e-03) (99, -7.52015933394432067871e-02) (100, 2.35678367316722869873e-02) (101, 2.82949320971965789795e-02) (102, -8.42252746224403381348e-02) (103, -1.47205516695976257324e-01) (104, -1.00905120372772216797e-01) (105, -7.00263977050781250000e-02) (106, 2.65677329152822494507e-02) (107, 1.09594163950532674789e-03) (108, 2.50351279973983764648e-01) (109, 1.60784959793090820312e-01) (110, 1.46614283323287963867e-01) (111, 4.44927930831909179688e-01) (112, 5.30489563941955566406e-01) (113, 4.10868734121322631836e-01) (114, -3.05883996188640594482e-02) (115, -2.42625270038843154907e-02) (116, -8.73951464891433715820e-02) (117, -7.44494274258613586426e-02) (118, -1.17119044065475463867e-01) (119, -2.47270744293928146362e-02) (120, -4.05423007905483245850e-02) (121, -6.04433678090572357178e-02) (122, 1.30771938711404800415e-03) (123, -8.21108371019363403320e-02) (124, -4.73850965499877929688e-02) (125, 5.06655983626842498779e-02) (126, -1.16443835198879241943e-01) (127, -2.02249735593795776367e-01) (128, 3.91768217086791992188e-01) (129, 3.40135544538497924805e-01) (130, 9.19593796133995056152e-02) (131, 3.98908555507659912109e-01) (132, 9.21863257884979248047e-01) (133, 8.21826040744781494141e-01) (134, 3.01282197237014770508e-01) (135, -1.14437341690063476562e-01) (136, -1.37350127100944519043e-01) (137, -9.24414172768592834473e-02) (138, -1.59288316965103149414e-01) (139, -2.77650840580463409424e-02) (140, -1.25105753540992736816e-01) (141, 1.22857643291354179382e-02) (142, -4.43402156233787536621e-02) (143, -1.25975146889686584473e-01) (144, -1.37209683656692504883e-01) (145, 1.03741191327571868896e-01) (146, -3.27604502439498901367e-01) (147, -3.53478848934173583984e-01) (148, 3.58656793832778930664e-02) (149, -1.54146209359169006348e-01) (150, -1.02394327521324157715e-01) (151, 3.85313034057617187500e-01) (152, 6.63951992988586425781e-01) (153, 1.07333421707153320312e+00) (154, 5.30407786369323730469e-01) (155, -5.15816211700439453125e-02) (156, -9.73750874400138854980e-02) (157, -1.32962480187416076660e-01) (158, -8.28756466507911682129e-02) (159, -1.06039881706237792969e-01) (160, -1.17909200489521026611e-01) (161, -1.28994747996330261230e-01) (162, -1.41540214419364929199e-01) (163, -1.65689796209335327148e-01) (164, -1.33162185549736022949e-01) (165, -2.21541479229927062988e-01) (166, -8.56231689453125000000e-01) (167, -6.11660480499267578125e-01) (168, -3.44724535942077636719e-01) (169, -8.86749505996704101562e-01) (170, -9.77130830287933349609e-01) (171, -2.81456619501113891602e-01) (172, 3.63827228546142578125e-01) (173, 1.05536055564880371094e+00) (174, 6.28030240535736083984e-01) (175, -2.02710945159196853638e-02) (176, -8.06609541177749633789e-02) (177, -4.20846454799175262451e-02) (178, 1.01545499637722969055e-02) (179, -4.74678762257099151611e-02) (180, 2.35440395772457122803e-02) (181, -9.68429148197174072266e-02) (182, -9.35432761907577514648e-02) (183, -5.43676801025867462158e-02) (184, -7.62766674160957336426e-02) (185, -2.40725293755531311035e-01) (186, -8.85024666786193847656e-01) (187, -6.47247016429901123047e-01) (188, -9.97166097164154052734e-01) (189, -9.44651424884796142578e-01) (190, -7.73615121841430664062e-01) (191, -2.32080012559890747070e-01) (192, -9.78292226791381835938e-02) (193, 1.53263472020626068115e-02) (194, 3.65818172693252563477e-01) (195, 4.30111885070800781250e-02) (196, -8.59550312161445617676e-02) (197, -1.44742146134376525879e-01) (198, -1.59599900245666503906e-01) (199, -8.29440541565418243408e-03) (200, -6.05191960930824279785e-02) (201, -1.07006959617137908936e-01) (202, -9.07696634531021118164e-02) (203, -4.80107292532920837402e-02) (204, 1.16132814437150955200e-02) (205, -5.10503172874450683594e-01) (206, -1.06845092773437500000e+00) (207, -7.97111153602600097656e-01) (208, -1.35255515575408935547e-01) (209, 3.86670410633087158203e-01) (210, 5.38336336612701416016e-01) (211, 1.18124032020568847656e+00) (212, 3.44750106334686279297e-01) (213, -5.12901425361633300781e-01) (214, -2.78851389884948730469e-01) (215, 2.19637565314769744873e-02) (216, 2.26523019373416900635e-02) (217, -1.41766190528869628906e-01) (218, -4.06113862991333007812e-02) (219, -2.77353096753358840942e-02) (220, -5.56895695626735687256e-02) (221, 1.39183625578880310059e-02) (222, -4.99970652163028717041e-02) (223, 1.81435570120811462402e-02) (224, -1.35215371847152709961e-01) (225, -2.95238047838211059570e-01) (226, -4.78543072938919067383e-01) (227, -1.69596284627914428711e-01) (228, 2.79151946306228637695e-01) (229, 4.51723635196685791016e-01) (230, 8.48330438137054443359e-01) (231, 1.06849980354309082031e+00) (232, 6.63437306880950927734e-01) (233, -5.02170920372009277344e-01) (234, -4.00903970003128051758e-01) (235, 2.37957257777452468872e-02) (236, -1.49776220321655273438e-01) (237, 5.01040695235133171082e-03) (238, -1.10095828771591186523e-01) (239, 2.10923142731189727783e-02) (240, 8.73518176376819610596e-03) (241, -6.89828172326087951660e-02) (242, -1.95737946778535842896e-02) (243, -1.54928117990493774414e-01) (244, -6.65403716266155242920e-03) (245, -2.30474874377250671387e-01) (246, -2.23103284835815429688e-01) (247, -2.48720094561576843262e-01) (248, -3.06445024907588958740e-02) (249, 4.51740860939025878906e-01) (250, 6.15447223186492919922e-01) (251, 6.43657088279724121094e-01) (252, 1.05817690491676330566e-01) (253, -5.52148699760437011719e-01) (254, -4.95683044195175170898e-01) (255, -1.16444095969200134277e-01) (256, -1.51640456169843673706e-02) (257, -1.21895946562290191650e-01) (258, -1.34541481733322143555e-01) (259, -8.75638201832771301270e-02) (260, 4.30522337555885314941e-02) (261, -1.14393029361963272095e-02) (262, -2.35266499221324920654e-02) (263, 1.14243943244218826294e-02) (264, -7.41587728261947631836e-02) (265, -1.34342774748802185059e-01) (266, -4.85161930322647094727e-01) (267, -5.01964747905731201172e-01) (268, 1.90142020583152770996e-01) (269, 3.10145497322082519531e-01) (270, 2.44502559304237365723e-01) (271, 2.11773753166198730469e-01) (272, 1.08913809061050415039e-01) (273, -5.63063800334930419922e-01) (274, -5.60102045536041259766e-01) (275, -1.47725939750671386719e-01) (276, -9.68948975205421447754e-02) (277, -1.46111801266670227051e-01) (278, -9.11570116877555847168e-02) (279, -4.99733239412307739258e-02) (280, -3.21366041898727416992e-02) (281, -1.52120143175125122070e-01) (282, -8.57684314250946044922e-02) (283, -1.59870222210884094238e-01) (284, -1.24842792749404907227e-01) (285, -1.57721266150474548340e-01) (286, -1.96501538157463073730e-01) (287, -2.50967502593994140625e-01) (288, -2.20086835324764251709e-02) (289, 2.79724955558776855469e-01) (290, 4.79765012860298156738e-02) (291, 2.13906168937683105469e-01) (292, -5.85843883454799652100e-02) (293, -6.19330525398254394531e-01) (294, -4.03221696615219116211e-01) (295, -1.75917759537696838379e-01) (296, -5.10540977120399475098e-02) (297, -1.51225924491882324219e-01) (298, -2.72340737283229827881e-02) (299, -1.72874003648757934570e-01) (300, -9.74099561572074890137e-02) (301, -8.73129367828369140625e-02) (302, -1.22630491852760314941e-01) (303, 2.95027736574411392212e-02) (304, -2.59824451059103012085e-02) (305, -4.25052195787429809570e-02) (306, 2.17525422573089599609e-01) (307, -3.58270891010761260986e-02) (308, 5.79414842650294303894e-03) (309, 1.15711517632007598877e-01) (310, 9.74006801843643188477e-02) (311, 1.79627224802970886230e-01) (312, 1.13534666597843170166e-01) (313, -2.11274698376655578613e-01) (314, -1.76725313067436218262e-02) (315, -1.13433785736560821533e-01) (316, -1.30630373954772949219e-01) (317, 7.69761810079216957092e-03) (318, -1.25044703483581542969e-01) (319, -7.10180252790451049805e-02) (320, -1.11524686217308044434e-02) (321, -2.24297344684600830078e-02) (322, 7.12090870365500450134e-03) (323, -9.90677177906036376953e-02) (324, 9.97639354318380355835e-03) (325, -7.26630762219429016113e-02) (326, 1.44750013947486877441e-01) (327, 2.77757138013839721680e-01) (328, 7.87651315331459045410e-02) (329, -1.36200487613677978516e-01) (330, -1.29834100604057312012e-01) (331, 1.38180062174797058105e-01) (332, 1.58092394471168518066e-01) (333, 1.48272335529327392578e-01) (334, 1.99489951133728027344e-01) (335, -8.77622067928314208984e-02) (336, -1.29359513521194458008e-01) (337, -1.42946049571037292480e-01) (338, -7.99898803234100341797e-02) (339, -2.06737518310546875000e-02) (340, -1.56181454658508300781e-01) (341, -1.19842953979969024658e-01) (342, -1.49229392409324645996e-01) (343, -1.53019160032272338867e-01) (344, -9.11949500441551208496e-02) (345, -8.12578573822975158691e-02) (346, -6.27004429697990417480e-02) (347, -1.44532201811671257019e-02) (348, -1.12363383173942565918e-01) (349, -8.09263661503791809082e-02) (350, -1.81368023157119750977e-01) (351, -1.81470870971679687500e-01) (352, -9.54816192388534545898e-02) (353, 6.38074949383735656738e-02) (354, -5.53662069141864776611e-02) (355, -1.34677842259407043457e-01) (356, -1.41990289092063903809e-01) (357, 2.51873605884611606598e-03) (358, -4.29244637489318847656e-02) (359, -1.00373022258281707764e-01) (360, -1.37796312570571899414e-01) (361, -1.28617122769355773926e-01) (362, -1.57583653926849365234e-01) (363, -8.34111683070659637451e-03) (364, 1.97482779622077941895e-02) (365, -4.21533435583114624023e-02) (366, -1.44546657800674438477e-01) (367, -1.39863178133964538574e-01) (368, -1.81476734578609466553e-02) (369, -5.42207434773445129395e-02) (370, -1.77191063761711120605e-01) (371, 3.79943684674799442291e-03) (372, -7.98300281167030334473e-03) (373, -1.50262102484703063965e-01) (374, -1.77674725651741027832e-01) (375, -1.33325681090354919434e-01) (376, -7.72829800844192504883e-02) (377, -9.83142033219337463379e-02) (378, -1.88145115971565246582e-02) (379, -3.29472012817859649658e-02) (380, 1.81365795433521270752e-02) (381, 1.44469793885946273804e-02) (382, -1.01674282923340797424e-02) (383, -1.07889443635940551758e-01) (384, 9.71394591033458709717e-03) (385, -1.23577870428562164307e-01) (386, -7.72862806916236877441e-02) (387, -1.62938177585601806641e-01) (388, -1.36975511908531188965e-01) (389, -1.38271704316139221191e-01) (390, -8.03280398249626159668e-02) (391, -1.20323240756988525391e-01) (392, -8.38996618986129760742e-02) (393, -6.80996775627136230469e-02) (394, -1.75342246890068054199e-01) (395, -9.98724251985549926758e-02) (396, -1.40885651111602783203e-01) (397, -1.45800381898880004883e-01) (398, -6.97756782174110412598e-02) (399, 1.84033531695604324341e-02) (400, -4.70030345022678375244e-02) (0, 4.93489727377891540527e-02) (1, 1.24214693903923034668e-01) (2, 7.11300224065780639648e-02) (3, 8.21419879794120788574e-02) (4, 1.39763355255126953125e-01) (5, 1.10156752169132232666e-01) (6, -3.40873412787914276123e-02) (7, -1.22748909052461385727e-03) (8, 7.11538642644882202148e-02) (9, 1.10029920935630798340e-01) (10, -2.77701974846422672272e-03) (11, 5.42212761938571929932e-02) (12, 7.71078094840049743652e-02) (13, 3.38039882481098175049e-02) (14, 4.72951792180538177490e-02) (15, 1.23416751623153686523e-01) (16, 1.38869822025299072266e-01) (17, 4.29605916142463684082e-02) (18, 1.44364103674888610840e-01) (19, -4.15515489876270294189e-02) (20, 1.42395183444023132324e-01) (21, 7.36660882830619812012e-03) (22, 4.85030077397823333740e-02) (23, 5.73952198028564453125e-02) (24, 9.36343800276517868042e-03) (25, 1.15327656269073486328e-01) (26, 8.73931422829627990723e-02) (27, 4.35282364487648010254e-02) (28, 3.69776934385299682617e-02) (29, 9.25842076539993286133e-02) (30, -6.57093618065118789673e-03) (31, 1.33056566119194030762e-01) (32, 5.31552843749523162842e-02) (33, 1.04387626051902770996e-01) (34, 6.74518272280693054199e-02) (35, 3.08202635496854782104e-02) (36, 6.04782998561859130859e-02) (37, 7.17404931783676147461e-02) (38, 8.95740613341331481934e-02) (39, -2.43978537619113922119e-02) (40, 4.90091964602470397949e-02) (41, 1.17232754826545715332e-01) (42, 8.21551904082298278809e-02) (43, -2.26723495870828628540e-02) (44, 1.23167308047413825989e-02) (45, -3.06555051356554031372e-02) (46, 1.31275266408920288086e-01) (47, -8.52448865771293640137e-03) (48, 8.84828343987464904785e-02) (49, 1.50612652301788330078e-01) (50, 2.35632862895727157593e-02) (51, 7.74207264184951782227e-02) (52, -3.95406410098075866699e-03) (53, 1.08737915754318237305e-01) (54, -2.01828721910715103149e-02) (55, 5.60966059565544128418e-02) (56, 8.34192186594009399414e-02) (57, 1.10178023576736450195e-01) (58, 1.50357022881507873535e-01) (59, -4.13341820240020751953e-02) (60, 5.56168444454669952393e-02) (61, -1.14931538701057434082e-02) (62, 1.52481585741043090820e-01) (63, 1.54929190874099731445e-01) (64, 1.33630692958831787109e-01) (65, 5.27020469307899475098e-02) (66, -1.13117676228284835815e-02) (67, -4.33696657419204711914e-02) (68, -1.40502631664276123047e-01) (69, -1.79329872131347656250e-01) (70, 8.53546801954507827759e-03) (71, 6.20453804731369018555e-02) (72, 1.57658964395523071289e-01) (73, -1.42425997182726860046e-02) (74, 1.02060876786708831787e-01) (75, -4.50263777747750282288e-03) (76, 4.07039858400821685791e-02) (77, 9.11415964365005493164e-02) (78, 2.83589605242013931274e-02) (79, -3.11017390340566635132e-02) (80, 8.09640809893608093262e-02) (81, 1.04838468134403228760e-01) (82, 9.40384417772293090820e-02) (83, 1.19991205632686614990e-01) (84, 5.69575317203998565674e-02) (85, 1.07128262519836425781e-01) (86, -1.77100867033004760742e-01) (87, -5.23403286933898925781e-01) (88, -6.88370108604431152344e-01) (89, -8.41860175132751464844e-01) (90, -6.57356560230255126953e-01) (91, -3.53801250457763671875e-01) (92, -6.53623864054679870605e-02) (93, -1.34458228945732116699e-01) (94, 3.51983793079853057861e-02) (95, 4.29105572402477264404e-02) (96, 9.52297523617744445801e-02) (97, 5.80979026854038238525e-02) (98, 1.25477835536003112793e-01) (99, 1.39398694038391113281e-01) (100, 7.24608972668647766113e-02) (101, 5.76982162892818450928e-02) (102, 5.67277297377586364746e-02) (103, 4.37358468770980834961e-02) (104, 1.18194580078125000000e-01) (105, -5.99396228790283203125e-02) (106, -5.90817153453826904297e-01) (107, -9.64422464370727539062e-01) (108, -3.22894632816314697266e-01) (109, -1.66177511215209960938e-01) (110, 2.15083509683609008789e-01) (111, 1.95449545979499816895e-01) (112, 1.42839938402175903320e-01) (113, -2.31590211391448974609e-01) (114, -5.79040050506591796875e-02) (115, -3.06389853358268737793e-03) (116, 1.31392851471900939941e-01) (117, 7.36165642738342285156e-02) (118, 3.59727889299392700195e-02) (119, 5.36525398492813110352e-02) (120, 1.48811131715774536133e-01) (121, 8.34684595465660095215e-02) (122, 9.36656966805458068848e-02) (123, 3.61344441771507263184e-02) (124, 1.26995727419853210449e-01) (125, 4.95334900915622711182e-03) (126, -8.44846308231353759766e-01) (127, -9.48538661003112792969e-01) (128, 1.40490174293518066406e-01) (129, 4.78518545627593994141e-01) (130, 4.93480294942855834961e-01) (131, 5.63330829143524169922e-01) (132, 5.21167278289794921875e-01) (133, 1.55127778649330139160e-01) (134, -1.62351548671722412109e-01) (135, 1.15875452756881713867e-01) (136, 3.80815053358674049377e-03) (137, 1.40350028872489929199e-01) (138, -1.44505780190229415894e-02) (139, -3.36268208920955657959e-02) (140, 1.54354929924011230469e-01) (141, 4.94675450026988983154e-02) (142, 6.84649646282196044922e-02) (143, 1.12185053527355194092e-01) (144, 6.29791095852851867676e-02) (145, -4.48925830423831939697e-02) (146, -1.02824592590332031250e+00) (147, -9.47898566722869873047e-01) (148, 2.36048251390457153320e-01) (149, 3.81433427333831787109e-01) (150, 4.06190574169158935547e-01) (151, 4.11418586969375610352e-01) (152, 5.65257847309112548828e-01) (153, 9.07395407557487487793e-02) (154, 5.81238418817520141602e-03) (155, 1.20784662663936614990e-01) (156, 2.77144312858581542969e-02) (157, 6.88156709074974060059e-02) (158, 5.27339875698089599609e-02) (159, 8.03934931755065917969e-02) (160, 3.68853798136115074158e-04) (161, -3.39002907276153564453e-02) (162, 6.06197007000446319580e-02) (163, 3.32213267683982849121e-02) (164, -4.12422753870487213135e-02) (165, 1.52864353731274604797e-03) (166, -9.12707209587097167969e-01) (167, -1.12657833099365234375e+00) (168, -9.57708805799484252930e-02) (169, -1.66877746582031250000e-01) (170, -4.79408711194992065430e-01) (171, 6.35032281279563903809e-02) (172, -5.23649267852306365967e-02) (173, 4.48721125721931457520e-02) (174, 1.32702291011810302734e-01) (175, 7.89489001035690307617e-02) (176, 1.11214198172092437744e-01) (177, 6.23865127563476562500e-02) (178, 1.45523890852928161621e-01) (179, 7.29053979739546775818e-04) (180, 1.62597969174385070801e-01) (181, 1.39351963996887207031e-01) (182, 7.61749371886253356934e-02) (183, -2.90727596729993820190e-02) (184, 4.11557108163833618164e-02) (185, -7.18097686767578125000e-02) (186, -6.78333282470703125000e-01) (187, -7.67514884471893310547e-01) (188, -1.04858958721160888672e+00) (189, -1.16700637340545654297e+00) (190, -1.06161415576934814453e+00) (191, -1.07160305976867675781e+00) (192, -5.26879370212554931641e-01) (193, -1.62462443113327026367e-01) (194, 2.61328399181365966797e-01) (195, 1.08621031045913696289e-01) (196, 1.14449404180049896240e-01) (197, 1.32788866758346557617e-01) (198, 1.24253243207931518555e-01) (199, 7.05581977963447570801e-02) (200, 4.26593050360679626465e-02) (201, 1.75677865627221763134e-04) (202, 3.45527902245521545410e-02) (203, 4.31549884378910064697e-02) (204, -4.63862903416156768799e-02) (205, -3.88163588941097259521e-02) (206, -4.98771846294403076172e-01) (207, -6.80254936218261718750e-01) (208, -9.27579045295715332031e-01) (209, -1.04016852378845214844e+00) (210, -6.93696022033691406250e-01) (211, -6.56981617212295532227e-02) (212, -1.75164207816123962402e-01) (213, -5.25942265987396240234e-01) (214, -1.06780253350734710693e-01) (215, 1.58724673092365264893e-02) (216, -4.22418639063835144043e-02) (217, 6.58944994211196899414e-02) (218, -1.62548348307609558105e-02) (219, 1.52110978960990905762e-01) (220, -1.43950544297695159912e-02) (221, 6.98795244097709655762e-02) (222, -1.11519377678632736206e-02) (223, 9.40789133310317993164e-02) (224, 6.12390190362930297852e-02) (225, -1.29017503932118415833e-02) (226, -5.84174633026123046875e-01) (227, -5.46204686164855957031e-01) (228, -1.25692620873451232910e-01) (229, 1.51439145207405090332e-01) (230, 9.46860790252685546875e-01) (231, 8.59909713268280029297e-01) (232, 1.35801762342453002930e-01) (233, -1.39224541187286376953e+00) (234, -7.78269469738006591797e-01) (235, -1.33337778970599174500e-02) (236, -3.34087247028946876526e-03) (237, 7.21167773008346557617e-02) (238, -7.87004083395004272461e-03) (239, 7.61673226952552795410e-02) (240, 7.66607820987701416016e-02) (241, 1.82644575834274291992e-02) (242, -2.22462862730026245117e-02) (243, 5.15012443065643310547e-02) (244, 1.36592641472816467285e-01) (245, -4.48287837207317352295e-02) (246, -4.83607620000839233398e-01) (247, -3.05342406034469604492e-01) (248, 3.28425794839859008789e-01) (249, 1.05579221248626708984e+00) (250, 1.24490809440612792969e+00) (251, 1.00991773605346679688e+00) (252, 3.96000713109970092773e-01) (253, -1.24003779888153076172e+00) (254, -1.10503602027893066406e+00) (255, 1.24316751956939697266e-01) (256, 1.07160925865173339844e-01) (257, 3.26572954654693603516e-02) (258, 5.24625787511467933655e-03) (259, 1.21315401047468185425e-02) (260, 8.20264816284179687500e-02) (261, 1.50753534398972988129e-03) (262, 3.18306237459182739258e-02) (263, 1.52259454131126403809e-01) (264, 3.19992490112781524658e-02) (265, -2.64281868934631347656e-01) (266, -1.12019550800323486328e+00) (267, -6.25292718410491943359e-01) (268, 7.85503685474395751953e-01) (269, 1.06859254837036132812e+00) (270, 7.56864607334136962891e-01) (271, 7.38698422908782958984e-01) (272, 5.04782676696777343750e-01) (273, -1.13817787170410156250e+00) (274, -9.83381748199462890625e-01) (275, 1.05156183242797851562e-01) (276, 1.41982942819595336914e-01) (277, -1.68101664166897535324e-03) (278, 9.17808040976524353027e-02) (279, -2.24437639117240905762e-02) (280, -1.27971265465021133423e-02) (281, 7.91968330740928649902e-02) (282, 5.53525872528553009033e-02) (283, 8.44808891415596008301e-02) (284, 8.16240981221199035645e-02) (285, -3.85365128517150878906e-01) (286, -1.17936372756958007812e+00) (287, -1.00375854969024658203e+00) (288, 2.49186873435974121094e-01) (289, 5.03918707370758056641e-01) (290, 2.38482296466827392578e-01) (291, 2.44727313518524169922e-01) (292, -2.24218457937240600586e-01) (293, -1.35795450210571289062e+00) (294, -1.01284039020538330078e+00) (295, -5.38171119987964630127e-02) (296, 1.49909943342208862305e-01) (297, 1.11889876425266265869e-01) (298, -3.90997081995010375977e-02) (299, 3.20723727345466613770e-02) (300, 3.81506085395812988281e-02) (301, 1.34684946388006210327e-02) (302, 2.65920665115118026733e-02) (303, 1.78726669400930404663e-02) (304, 7.21710473299026489258e-02) (305, 7.06540793180465698242e-02) (306, -2.75525987148284912109e-01) (307, -8.22523355484008789062e-01) (308, -6.78728699684143066406e-01) (309, -5.07999181747436523438e-01) (310, -5.76006114482879638672e-01) (311, -7.06297457218170166016e-01) (312, -5.64490020275115966797e-01) (313, -6.75203502178192138672e-01) (314, 9.06484723091125488281e-02) (315, -6.61967396736145019531e-02) (316, 8.32766443490982055664e-02) (317, 2.36977431923151016235e-02) (318, 4.79675941169261932373e-02) (319, 4.24194522202014923096e-02) (320, -8.97444225847721099854e-03) (321, -1.09399780631065368652e-02) (322, 1.40370547771453857422e-01) (323, 9.59333125501871109009e-03) (324, 2.85520870238542556763e-02) (325, 7.37445130944252014160e-02) (326, 3.40924143791198730469e-01) (327, -6.77860202267765998840e-03) (328, -5.05432426929473876953e-01) (329, -6.67396962642669677734e-01) (330, -8.19545090198516845703e-01) (331, -5.56960105895996093750e-01) (332, -5.80461835488677024841e-03) (333, 2.04672425985336303711e-01) (334, 4.98226702213287353516e-01) (335, 6.43253326416015625000e-02) (336, 1.33759111166000366211e-01) (337, 1.13338828086853027344e-01) (338, 1.57626733183860778809e-01) (339, 1.16619877517223358154e-01) (340, 7.34823271632194519043e-02) (341, 8.25829803943634033203e-02) (342, 1.46171718835830688477e-01) (343, 1.51153862476348876953e-01) (344, 1.11913487315177917480e-01) (345, 1.11178174614906311035e-01) (346, -9.31674789171665906906e-04) (347, 5.72919882833957672119e-02) (348, 3.37900705635547637939e-02) (349, -1.55149966478347778320e-01) (350, -9.97530445456504821777e-02) (351, -1.75177708268165588379e-01) (352, 9.10357162356376647949e-02) (353, 1.55547276139259338379e-01) (354, 4.48081865906715393066e-02) (355, 1.48752406239509582520e-01) (356, 1.49633765220642089844e-01) (357, 1.35963693261146545410e-01) (358, -4.70823422074317932129e-03) (359, 1.47425517439842224121e-01) (360, 7.16203972697257995605e-02) (361, 1.24089099466800689697e-01) (362, 2.69464552402496337891e-02) (363, 3.96806187927722930908e-02) (364, 1.32550150156021118164e-01) (365, -3.06159928441047668457e-02) (366, 1.32515981793403625488e-01) (367, 9.99283567070960998535e-02) (368, 1.13047994673252105713e-01) (369, 1.05019986629486083984e-01) (370, 5.52793443202972412109e-02) (371, 3.81426885724067687988e-02) (372, 4.63871173560619354248e-02) (373, 4.20920290052890777588e-02) (374, 2.18649376183748245239e-02) (375, -2.67657525837421417236e-02) (376, -3.77204380929470062256e-02) (377, 2.77470555156469345093e-02) (378, 5.31761310994625091553e-02) (379, 1.34592190384864807129e-01) (380, 1.15228727459907531738e-01) (381, 8.07816907763481140137e-03) (382, 1.54450997710227966309e-01) (383, 3.37291024625301361084e-02) (384, 1.30030810832977294922e-01) (385, -2.42732162587344646454e-03) (386, 1.87889114022254943848e-02) (387, 1.13955996930599212646e-01) (388, -2.32580229640007019043e-02) (389, 4.29445691406726837158e-02) (390, 1.01883880794048309326e-01) (391, 7.45812132954597473145e-02) (392, 1.11842975020408630371e-02) (393, -3.89093384146690368652e-02) (394, 1.32620662450790405273e-01) (395, -2.56609395146369934082e-02) (396, -3.09655927121639251709e-02) (397, 1.08196049928665161133e-01) (398, 1.26058906316757202148e-01) (399, 1.25029757618904113770e-01) (400, 7.10347071290016174316e-02) (0, -7.72163867950439453125e-02) (1, -1.09667949378490447998e-01) (2, 3.73801328241825103760e-02) (3, 2.72191769909113645554e-04) (4, -3.08828614652156829834e-02) (5, -1.37288674712181091309e-01) (6, -9.35311149805784225464e-03) (7, 3.21849212050437927246e-02) (8, -5.61318583786487579346e-02) (9, -2.15712729841470718384e-02) (10, -1.36841936036944389343e-02) (11, -1.27571448683738708496e-02) (12, -4.63615432381629943848e-02) (13, 4.63615134358406066895e-02) (14, -4.44653332233428955078e-02) (15, -1.14950332790613174438e-02) (16, -1.20935738086700439453e-01) (17, -1.07446379959583282471e-01) (18, -1.11468210816383361816e-02) (19, -5.89222051203250885010e-02) (20, 4.94042448699474334717e-02) (21, -7.16191083192825317383e-02) (22, 2.01554317027330398560e-02) (23, -1.55609980225563049316e-01) (24, -9.10147652029991149902e-02) (25, 2.34804209321737289429e-02) (26, -1.50545448064804077148e-01) (27, -1.42112120985984802246e-01) (28, -1.19607569649815559387e-02) (29, 6.53119906783103942871e-02) (30, -1.58626716583967208862e-02) (31, -1.59242376685142517090e-01) (32, -1.34153470396995544434e-01) (33, -6.45761638879776000977e-02) (34, -4.15918231010437011719e-03) (35, -4.16020117700099945068e-02) (36, -4.59822155535221099854e-02) (37, -5.46319968998432159424e-02) (38, -4.59918715059757232666e-02) (39, -1.59286215901374816895e-01) (40, -1.09363682568073272705e-01) (41, -1.17499738931655883789e-01) (42, -2.49811448156833648682e-02) (43, -6.72629754990339279175e-03) (44, -1.40622466802597045898e-01) (45, -9.26757454872131347656e-02) (46, -3.60166281461715698242e-02) (47, -7.27139785885810852051e-02) (48, -1.05746099725365638733e-02) (49, -3.70894744992256164551e-02) (50, 5.86583875119686126709e-02) (51, -6.49152090772986412048e-03) (52, -9.26994532346725463867e-03) (53, -1.74581946339458227158e-03) (54, -4.53923419117927551270e-02) (55, -1.50691747665405273438e-01) (56, -2.38621588796377182007e-02) (57, -4.00241278111934661865e-02) (58, -1.45103558897972106934e-01) (59, -1.17323271930217742920e-01) (60, -2.03316528350114822388e-02) (61, 1.37760897632688283920e-03) (62, -1.13226115703582763672e-01) (63, -3.06728854775428771973e-02) (64, -1.06161803007125854492e-01) (65, -9.37046185135841369629e-02) (66, 1.30294665694236755371e-01) (67, 3.02071362733840942383e-01) (68, 5.70278286933898925781e-01) (69, 6.73728764057159423828e-01) (70, 6.76231622695922851562e-01) (71, 4.98882830142974853516e-01) (72, 3.03551822900772094727e-01) (73, 8.36882144212722778320e-02) (74, 3.57666946947574615479e-02) (75, 4.46965657174587249756e-02) (76, -2.71893385797739028931e-02) (77, 2.13869251310825347900e-02) (78, -1.32951557636260986328e-01) (79, -1.38048231601715087891e-01) (80, -9.06566604971885681152e-02) (81, -1.26678943634033203125e-01) (82, -6.13874150440096855164e-03) (83, 4.74352873861789703369e-02) (84, 1.00643457844853401184e-02) (85, 7.77723714709281921387e-02) (86, 6.57731950283050537109e-01) (87, 1.19954752922058105469e+00) (88, 9.57175135612487792969e-01) (89, 6.21592104434967041016e-01) (90, 9.54699754714965820312e-01) (91, 5.72455108165740966797e-01) (92, 3.64047884941101074219e-01) (93, -4.39458638429641723633e-02) (94, 3.37972342967987060547e-01) (95, 3.94844003021717071533e-02) (96, 6.12693186849355697632e-03) (97, -1.08403578400611877441e-01) (98, -2.89244931191205978394e-02) (99, -6.15090429782867431641e-02) (100, -1.27321764826774597168e-01) (101, -6.06039315462112426758e-02) (102, -1.07838690280914306641e-01) (103, 3.58731336891651153564e-02) (104, 2.82838344573974609375e-02) (105, 1.39237761497497558594e-01) (106, 9.67215597629547119141e-01) (107, 1.79079979658126831055e-01) (108, 1.48716017603874206543e-01) (109, 2.55903422832489013672e-01) (110, 3.01470637321472167969e-01) (111, 3.58242511749267578125e-01) (112, 2.87411361932754516602e-01) (113, 2.06815361976623535156e-01) (114, 1.03333942592144012451e-01) (115, 7.41362199187278747559e-03) (116, -2.06455844454467296600e-03) (117, -7.30497092008590698242e-02) (118, -1.10504239797592163086e-01) (119, -4.22905795276165008545e-02) (120, 4.13985736668109893799e-03) (121, -1.46450683474540710449e-01) (122, -1.17459684610366821289e-01) (123, -6.23634420335292816162e-02) (124, 4.69122268259525299072e-02) (125, 2.13889449834823608398e-01) (126, 3.17993104457855224609e-01) (127, -1.69317156076431274414e-01) (128, -1.60539895296096801758e-02) (129, 1.74872040748596191406e-01) (130, -4.64157998561859130859e-01) (131, 1.31454527378082275391e-01) (132, 7.98492074012756347656e-01) (133, 5.89182794094085693359e-01) (134, -7.64333456754684448242e-02) (135, -7.23586082458496093750e-02) (136, -1.22345171868801116943e-01) (137, -1.43035128712654113770e-01) (138, 4.60162432864308357239e-03) (139, -5.00438101589679718018e-02) (140, -1.13114736974239349365e-01) (141, -3.78863960504531860352e-02) (142, -9.28715988993644714355e-02) (143, -1.10133379697799682617e-01) (144, -1.47580102086067199707e-01) (145, 1.47690445184707641602e-01) (146, -7.36916244029998779297e-01) (147, -7.43545532226562500000e-01) (148, -1.89679376780986785889e-02) (149, -7.01086759567260742188e-01) (150, -5.05957126617431640625e-01) (151, 4.56735342741012573242e-01) (152, 8.41677844524383544922e-01) (153, 1.67678296566009521484e+00) (154, 1.11678314208984375000e+00) (155, 1.06765218079090118408e-01) (156, -1.34046435356140136719e-01) (157, 3.20587642490863800049e-02) (158, -5.55652976036071777344e-02) (159, -5.48077449202537536621e-02) (160, -1.29498109221458435059e-01) (161, -1.36187151074409484863e-01) (162, -1.39285936951637268066e-01) (163, -6.15562833845615386963e-02) (164, -3.86008471250534057617e-02) (165, -3.13187897205352783203e-01) (166, -1.13741862773895263672e+00) (167, -1.32300353050231933594e+00) (168, -1.10439479351043701172e+00) (169, -1.68972170352935791016e+00) (170, -1.23730254173278808594e+00) (171, -1.05208732187747955322e-01) (172, 1.61152824759483337402e-01) (173, 1.40806949138641357422e+00) (174, 1.25249171257019042969e+00) (175, 1.42810702323913574219e-01) (176, 2.73066032677888870239e-02) (177, -1.11095108091831207275e-01) (178, -9.43448692560195922852e-02) (179, -9.86518785357475280762e-02) (180, 3.75558882951736450195e-02) (181, -1.25477120280265808105e-01) (182, -4.60771434009075164795e-02) (183, -5.20784296095371246338e-02) (184, 1.39047624543309211731e-02) (185, -6.12434506416320800781e-01) (186, -1.22402942180633544922e+00) (187, -1.59510028362274169922e+00) (188, -3.15299010276794433594e+00) (189, -2.17281079292297363281e+00) (190, -1.15689253807067871094e+00) (191, -6.63685858249664306641e-01) (192, -3.85512471199035644531e-01) (193, -6.02935291826725006104e-02) (194, 1.00460171699523925781e+00) (195, 1.86562806367874145508e-01) (196, -9.34730768203735351562e-02) (197, -5.91258741915225982666e-02) (198, -9.25185456871986389160e-02) (199, 2.24120970815420150757e-02) (200, -7.97809660434722900391e-02) (201, -1.44831851124763488770e-01) (202, -1.27394469454884529114e-02) (203, -4.80157770216464996338e-02) (204, -5.68130146712064743042e-03) (205, -1.06454062461853027344e+00) (206, -1.64006519317626953125e+00) (207, -2.12522840499877929688e+00) (208, -1.68195676803588867188e+00) (209, -1.80903881788253784180e-01) (210, 8.40705275535583496094e-01) (211, 2.15848422050476074219e+00) (212, 5.82069396972656250000e-01) (213, -5.46161353588104248047e-01) (214, -1.12557955086231231689e-01) (215, 1.31528586149215698242e-01) (216, 3.23702432215213775635e-02) (217, -5.09223416447639465332e-02) (218, -3.50057259202003479004e-02) (219, -1.43085092306137084961e-01) (220, -5.74005283415317535400e-02) (221, -9.40713584423065185547e-02) (222, -1.01634785532951354980e-01) (223, -1.48047894239425659180e-01) (224, -1.70045763254165649414e-01) (225, -1.30375897884368896484e+00) (226, -2.96760869026184082031e+00) (227, -2.43158817291259765625e+00) (228, 1.27409249544143676758e-01) (229, 1.01517248153686523438e+00) (230, 2.48801875114440917969e+00) (231, 2.63137102127075195312e+00) (232, 5.02808749675750732422e-01) (233, -1.48875331878662109375e+00) (234, -5.10233581066131591797e-01) (235, 1.10041238367557525635e-01) (236, 3.27940806746482849121e-02) (237, -3.87903153896331787109e-02) (238, -5.43913710862398147583e-03) (239, 1.28014571964740753174e-02) (240, -1.18391044437885284424e-01) (241, -1.26831099390983581543e-01) (242, 2.42787245661020278931e-02) (243, -3.38375866413116455078e-02) (244, -6.42608478665351867676e-02) (245, -1.66050589084625244141e+00) (246, -3.30754566192626953125e+00) (247, -2.85027050971984863281e+00) (248, -4.18927758932113647461e-01) (249, 9.38267767429351806641e-01) (250, 1.34211885929107666016e+00) (251, 9.69250321388244628906e-01) (252, -3.60989302396774291992e-01) (253, -1.40625846385955810547e+00) (254, -1.44150197505950927734e+00) (255, -4.57093298435211181641e-01) (256, -1.22958138585090637207e-01) (257, 3.55716757476329803467e-02) (258, -4.66358177363872528076e-02) (259, -3.68270091712474822998e-02) (260, -1.33443489670753479004e-01) (261, -1.29951879382133483887e-01) (262, -3.09817828238010406494e-02) (263, -1.83475285768508911133e-01) (264, -2.35881999135017395020e-01) (265, -8.82174313068389892578e-01) (266, -2.18760871887207031250e+00) (267, -1.97620058059692382812e+00) (268, 7.20556005835533142090e-02) (269, 8.35658550262451171875e-01) (270, 4.94254022836685180664e-01) (271, 6.77075609564781188965e-02) (272, 1.22420666739344596863e-02) (273, -1.34674799442291259766e+00) (274, -1.79294121265411376953e+00) (275, -4.32255744934082031250e-01) (276, -1.22725330293178558350e-01) (277, -3.63305471837520599365e-02) (278, -1.89107861369848251343e-02) (279, -9.55916047096252441406e-02) (280, -4.60898056626319885254e-02) (281, 1.24074891209602355957e-03) (282, -2.98050493001937866211e-02) (283, -2.36924923956394195557e-02) (284, -1.59599289298057556152e-01) (285, -2.91240662336349487305e-01) (286, -1.56548738479614257812e-01) (287, -9.81969311833381652832e-02) (288, 2.31638863682746887207e-01) (289, 9.87082362174987792969e-01) (290, 4.12196397781372070312e-01) (291, 4.24726933240890502930e-01) (292, -1.24397324398159980774e-02) (293, -1.31206512451171875000e+00) (294, -1.31187117099761962891e+00) (295, -1.03159576654434204102e-01) (296, -7.32275322079658508301e-02) (297, -1.36847108602523803711e-01) (298, 8.05839896202087402344e-03) (299, -1.48765683174133300781e-01) (300, -1.45785257220268249512e-01) (301, 5.24578988552093505859e-02) (302, -2.83464472740888595581e-02) (303, -1.66273519396781921387e-01) (304, 2.79784668236970901489e-03) (305, -9.75539684295654296875e-02) (306, 6.82145833969116210938e-01) (307, 3.04988116025924682617e-01) (308, 5.70614218711853027344e-01) (309, 6.72489523887634277344e-01) (310, 4.22744691371917724609e-01) (311, 2.62536168098449707031e-01) (312, -4.77364063262939453125e-01) (313, -1.05099868774414062500e+00) (314, 9.83786582946777343750e-02) (315, -4.79625873267650604248e-02) (316, -8.43597427010536193848e-02) (317, 7.39598413929343223572e-03) (318, 2.14034551754593849182e-03) (319, -8.19717794656753540039e-02) (320, -1.48488180711865425110e-02) (321, 3.10868192464113235474e-02) (322, -3.60436886548995971680e-02) (323, -8.10048729181289672852e-02) (324, -7.06913918256759643555e-02) (325, 1.75751790404319763184e-01) (326, 4.29683625698089599609e-01) (327, 4.28249835968017578125e-01) (328, 6.27116262912750244141e-01) (329, 1.50768518447875976562e-01) (330, -2.19769507646560668945e-01) (331, -1.60696476697921752930e-01) (332, -6.59262120723724365234e-01) (333, -1.60325169563293457031e-01) (334, 4.04166817665100097656e-01) (335, -4.62363436818122863770e-02) (336, -1.60060539841651916504e-01) (337, 4.87995753064751625061e-03) (338, -2.83247567713260650635e-02) (339, -4.21559736132621765137e-02) (340, -5.72748258709907531738e-02) (341, -9.03036966919898986816e-02) (342, 1.24244755133986473083e-02) (343, -1.71805918216705322266e-01) (344, -2.30058282613754272461e-02) (345, 5.04397489130496978760e-02) (346, 5.86408078670501708984e-02) (347, -5.75704686343669891357e-03) (348, 2.90290778502821922302e-03) (349, -1.31603732705116271973e-01) (350, -1.44598484039306640625e-01) (351, -1.80048391222953796387e-01) (352, -1.14874079823493957520e-01) (353, -2.84431800246238708496e-02) (354, -6.40966594219207763672e-02) (355, -1.61100506782531738281e-01) (356, -1.57804310321807861328e-01) (357, -5.74190542101860046387e-02) (358, -1.34248211979866027832e-01) (359, 1.04555133730173110962e-02) (360, -1.13323196768760681152e-01) (361, -7.37950950860977172852e-02) (362, 2.70344726741313934326e-02) (363, -2.75571830570697784424e-02) (364, -5.71709610521793365479e-02) (365, -1.73360183835029602051e-01) (366, -1.14165566861629486084e-01) (367, -4.36832532286643981934e-02) (368, 2.52629946917295455933e-02) (369, -2.60279187932610511780e-03) (370, -1.40144750475883483887e-01) (371, -9.45596471428871154785e-02) (372, -1.35352328419685363770e-01) (373, -1.45706951618194580078e-01) (374, -8.96507799625396728516e-02) (375, -3.06560713797807693481e-02) (376, -1.88697464764118194580e-02) (377, -1.54894858598709106445e-01) (378, -7.93649908155202865601e-03) (379, -7.02306255698204040527e-02) (380, -3.21460962295532226562e-02) (381, -4.02414947748184204102e-02) (382, -1.28194689750671386719e-01) (383, -1.40758469700813293457e-01) (384, 4.14106436073780059814e-03) (385, -1.19486995041370391846e-01) (386, -1.26168727874755859375e-01) (387, 1.92355588078498840332e-02) (388, 2.18126494437456130981e-02) (389, -8.85026827454566955566e-02) (390, -1.87114183790981769562e-03) (391, 1.31195746362209320068e-02) (392, 2.17993576079607009888e-02) (393, 1.57236531376838684082e-02) (394, -5.74650913476943969727e-02) (395, -1.23954601585865020752e-01) (396, -1.51655990630388259888e-02) (397, -4.18192185461521148682e-02) (398, -2.41243001073598861694e-02) (399, -3.13743241131305694580e-02) (400, -1.51461690664291381836e-01) (0, -4.61402714252471923828e-01) (1, -4.28197741508483886719e-01) (2, -3.26062411069869995117e-01) (3, -4.70911413431167602539e-01) (4, -2.90019333362579345703e-01) (5, -3.78631234169006347656e-01) (6, -2.77344226837158203125e-01) (7, -2.80057638883590698242e-01) (8, -3.97092849016189575195e-01) (9, -3.77006918191909790039e-01) (10, -3.51430237293243408203e-01) (11, -2.79601156711578369141e-01) (12, -3.62385749816894531250e-01) (13, -3.50616246461868286133e-01) (14, -3.07379990816116333008e-01) (15, -2.93038129806518554688e-01) (16, -3.14705550670623779297e-01) (17, -3.38622868061065673828e-01) (18, -3.42508226633071899414e-01) (19, -4.59279119968414306641e-01) (20, -3.46203356981277465820e-01) (21, -3.61268460750579833984e-01) (22, -2.90357321500778198242e-01) (23, -4.03979629278182983398e-01) (24, -4.08076822757720947266e-01) (25, -4.23215001821517944336e-01) (26, -4.22537833452224731445e-01) (27, -4.68369454145431518555e-01) (28, -4.77959334850311279297e-01) (29, -2.76176124811172485352e-01) (30, -3.73528689146041870117e-01) (31, -4.80812162160873413086e-01) (32, -4.36778992414474487305e-01) (33, -4.50708746910095214844e-01) (34, -4.87599700689315795898e-01) (35, -4.67302888631820678711e-01) (36, -3.48328649997711181641e-01) (37, -2.90234506130218505859e-01) (38, -2.66827464103698730469e-01) (39, -4.89886134862899780273e-01) (40, -3.66787880659103393555e-01) (41, -3.67521405220031738281e-01) (42, -2.73972332477569580078e-01) (43, -4.82941508293151855469e-01) (44, -4.32057619094848632812e-01) (45, -3.06510001420974731445e-01) (46, -3.30592304468154907227e-01) (47, -2.90178865194320678711e-01) (48, -3.63677471876144409180e-01) (49, -3.81896793842315673828e-01) (50, -2.55413532257080078125e-01) (51, -2.51316070556640625000e-01) (52, -4.60209608078002929688e-01) (53, -3.00089359283447265625e-01) (54, -4.37155038118362426758e-01) (55, -4.27577465772628784180e-01) (56, -4.85857725143432617188e-01) (57, -3.75174462795257568359e-01) (58, -4.25113379955291748047e-01) (59, -4.65044856071472167969e-01) (60, -3.77035051584243774414e-01) (61, -2.99982130527496337891e-01) (62, -4.60718810558319091797e-01) (63, -3.48547726869583129883e-01) (64, -4.71909135580062866211e-01) (65, -5.34915328025817871094e-01) (66, -6.40166759490966796875e-01) (67, -4.95338469743728637695e-01) (68, -3.73518884181976318359e-01) (69, -1.11368276178836822510e-01) (70, 9.40291360020637512207e-02) (71, 1.62572056055068969727e-01) (72, -2.89927124977111816406e-01) (73, -5.67378938198089599609e-01) (74, -6.08763277530670166016e-01) (75, -4.59747374057769775391e-01) (76, -3.85712206363677978516e-01) (77, -4.06540781259536743164e-01) (78, -4.26006495952606201172e-01) (79, -2.96451389789581298828e-01) (80, -2.89044946432113647461e-01) (81, -4.18055146932601928711e-01) (82, -2.90427923202514648438e-01) (83, -2.98007607460021972656e-01) (84, -4.47929173707962036133e-01) (85, -6.43927216529846191406e-01) (86, -1.53084576129913330078e+00) (87, -1.12816488742828369141e+00) (88, -6.37445271015167236328e-01) (89, -3.37461173534393310547e-01) (90, 4.17446434497833251953e-01) (91, 7.21252560615539550781e-01) (92, 3.16938638687133789062e-01) (93, -1.25022137165069580078e+00) (94, -1.39527034759521484375e+00) (95, -4.83203917741775512695e-01) (96, -3.88964504003524780273e-01) (97, -4.14838373661041259766e-01) (98, -3.01207840442657470703e-01) (99, -3.57838571071624755859e-01) (100, -2.62597709894180297852e-01) (101, -3.51861149072647094727e-01) (102, -4.27391201257705688477e-01) (103, -4.31095898151397705078e-01) (104, -4.11940574645996093750e-01) (105, -2.39517673850059509277e-01) (106, 5.55502027273178100586e-02) (107, 4.33309227228164672852e-01) (108, 5.02314031124114990234e-01) (109, 7.13291943073272705078e-01) (110, 8.64219963550567626953e-01) (111, 1.34705996513366699219e+00) (112, 9.74957942962646484375e-01) (113, -6.81035935878753662109e-01) (114, -1.12854516506195068359e+00) (115, -4.43350762128829956055e-01) (116, -3.13962489366531372070e-01) (117, -3.25025200843811035156e-01) (118, -3.67218494415283203125e-01) (119, -3.65938365459442138672e-01) (120, -4.26335841417312622070e-01) (121, -2.80390858650207519531e-01) (122, -3.19009542465209960938e-01) (123, -3.53890866041183471680e-01) (124, -3.99001598358154296875e-01) (125, -4.40182201564311981201e-02) (126, 8.99403870105743408203e-01) (127, 1.05916357040405273438e+00) (128, 1.07118952274322509766e+00) (129, 8.68591606616973876953e-01) (130, 5.38843870162963867188e-01) (131, 1.21603047847747802734e+00) (132, 3.06787580251693725586e-01) (133, -5.91501295566558837891e-01) (134, -3.44951957464218139648e-01) (135, -3.31258147954940795898e-01) (136, -4.10135000944137573242e-01) (137, -3.65213483572006225586e-01) (138, -4.16173130273818969727e-01) (139, -4.12710160017013549805e-01) (140, -3.79660815000534057617e-01) (141, -4.43459630012512207031e-01) (142, -4.35976505279541015625e-01) (143, -3.34064990282058715820e-01) (144, -2.86542087793350219727e-01) (145, 2.07848787307739257812e-01) (146, 7.38066852092742919922e-01) (147, 7.37240195274353027344e-01) (148, 4.63609129190444946289e-01) (149, 1.56618937849998474121e-01) (150, 2.08712518215179443359e-02) (151, 5.85210084915161132812e-01) (152, -3.68375599384307861328e-01) (153, -4.81548547744750976562e-01) (154, 1.58834099769592285156e-01) (155, -2.56485700607299804688e-01) (156, -3.90073955059051513672e-01) (157, -4.52910512685775756836e-01) (158, -3.64144116640090942383e-01) (159, -4.28620070219039916992e-01) (160, -2.98038065433502197266e-01) (161, -4.59877878427505493164e-01) (162, -4.53718066215515136719e-01) (163, -4.19629663228988647461e-01) (164, -3.21002870798110961914e-01) (165, -1.42238950356841087341e-02) (166, 7.30907320976257324219e-01) (167, 3.10282468795776367188e-01) (168, 3.59452217817306518555e-02) (169, 6.76794499158859252930e-02) (170, -4.42995410412549972534e-03) (171, -2.75942474603652954102e-01) (172, -4.00273859500885009766e-01) (173, 3.49066406488418579102e-01) (174, 3.73143106698989868164e-01) (175, -3.48009914159774780273e-01) (176, -3.84108901023864746094e-01) (177, -3.34089040756225585938e-01) (178, -3.22686403989791870117e-01) (179, -4.47942256927490234375e-01) (180, -4.26494657993316650391e-01) (181, -4.60629701614379882812e-01) (182, -2.76693701744079589844e-01) (183, -3.05643856525421142578e-01) (184, -4.20617520809173583984e-01) (185, -4.97162975370883941650e-02) (186, 6.38536512851715087891e-01) (187, 7.44455456733703613281e-01) (188, 2.62564510107040405273e-01) (189, -2.68190532922744750977e-01) (190, -5.43937206268310546875e-01) (191, -6.20966851711273193359e-01) (192, 4.42479252815246582031e-01) (193, 9.63182508945465087891e-01) (194, 3.65492582321166992188e-01) (195, -3.33301424980163574219e-01) (196, -4.39614772796630859375e-01) (197, -4.15828526020050048828e-01) (198, -4.66252654790878295898e-01) (199, -3.45165252685546875000e-01) (200, -3.67637395858764648438e-01) (201, -3.80076915025711059570e-01) (202, -3.14067274332046508789e-01) (203, -2.79330134391784667969e-01) (204, -4.21116441488265991211e-01) (205, -1.59558758139610290527e-01) (206, 4.28365141153335571289e-01) (207, 1.00863265991210937500e+00) (208, 4.46205079555511474609e-01) (209, -4.17494058609008789062e-01) (210, -1.08684313297271728516e+00) (211, 2.92261570692062377930e-01) (212, 1.26877248287200927734e+00) (213, 7.29708313941955566406e-01) (214, 3.55269670486450195312e-01) (215, -2.92096793651580810547e-01) (216, -4.43714022636413574219e-01) (217, -4.72495019435882568359e-01) (218, -3.18157941102981567383e-01) (219, -3.58255952596664428711e-01) (220, -4.01853621006011962891e-01) (221, -3.21636021137237548828e-01) (222, -2.89765119552612304688e-01) (223, -3.49125713109970092773e-01) (224, -3.04432511329650878906e-01) (225, -2.26047351956367492676e-01) (226, 2.77495235204696655273e-01) (227, 6.82406127452850341797e-01) (228, 3.95724833011627197266e-01) (229, 3.03645282983779907227e-01) (230, -2.11886271834373474121e-01) (231, 8.96229803562164306641e-01) (232, 1.31719756126403808594e+00) (233, 7.58416131138801574707e-02) (234, 1.63533449172973632812e-01) (235, -2.38682508468627929688e-01) (236, -4.83785003423690795898e-01) (237, -3.65047693252563476562e-01) (238, -4.70928609371185302734e-01) (239, -4.24916118383407592773e-01) (240, -3.62437099218368530273e-01) (241, -2.94641166925430297852e-01) (242, -2.85108000040054321289e-01) (243, -3.69929730892181396484e-01) (244, -3.25646460056304931641e-01) (245, -9.44707170128822326660e-02) (246, 2.71092683076858520508e-01) (247, 2.56134748458862304688e-01) (248, 3.61330479383468627930e-01) (249, 2.26072892546653747559e-01) (250, -3.49427640438079833984e-01) (251, 9.64994311332702636719e-01) (252, 9.20394659042358398438e-01) (253, 2.86216467618942260742e-01) (254, 2.62852817773818969727e-01) (255, -2.37529754638671875000e-01) (256, -2.94376403093338012695e-01) (257, -4.37128931283950805664e-01) (258, -4.52783465385437011719e-01) (259, -3.21297019720077514648e-01) (260, -4.49182689189910888672e-01) (261, -3.05805236101150512695e-01) (262, -4.17137295007705688477e-01) (263, -4.06219661235809326172e-01) (264, -4.25780177116394042969e-01) (265, -1.19210578501224517822e-01) (266, 1.42936818301677703857e-02) (267, 3.10483634471893310547e-01) (268, 5.95790803432464599609e-01) (269, -7.52977073192596435547e-01) (270, -9.61739122867584228516e-01) (271, 1.02205646038055419922e+00) (272, 9.91463243961334228516e-01) (273, 3.62957775592803955078e-01) (274, 1.25927671790122985840e-01) (275, -2.13962569832801818848e-01) (276, -4.88198012113571166992e-01) (277, -3.98006200790405273438e-01) (278, -3.55945110321044921875e-01) (279, -3.87231826782226562500e-01) (280, -4.27486509084701538086e-01) (281, -4.32496011257171630859e-01) (282, -3.81818354129791259766e-01) (283, -3.34619581699371337891e-01) (284, -3.64564150571823120117e-01) (285, 